<?xml version="1.0" encoding="UTF-8" standalone="yes"?>
<PMML xmlns="http://www.dmg.org/PMML-4_3" xmlns:data="http://jpmml.org/jpmml-model/InlineTable" version="4.3">
	<Header>
		<Application name="JPMML-SkLearn" version="1.6.25"/>
		<Timestamp>2021-07-29T01:41:02Z</Timestamp>
	</Header>
	<DataDictionary>
		<DataField name="y" optype="categorical" dataType="integer">
			<Value value="0"/>
			<Value value="1"/>
		</DataField>
		<DataField name="x1" optype="continuous" dataType="double"/>
		<DataField name="x3" optype="continuous" dataType="double"/>
		<DataField name="x5" optype="continuous" dataType="double"/>
		<DataField name="x6" optype="continuous" dataType="double"/>
		<DataField name="x7" optype="continuous" dataType="double"/>
		<DataField name="x8" optype="continuous" dataType="double"/>
		<DataField name="x9" optype="continuous" dataType="double"/>
		<DataField name="x12" optype="continuous" dataType="double"/>
		<DataField name="x13" optype="continuous" dataType="double"/>
		<DataField name="x34" optype="continuous" dataType="double"/>
		<DataField name="x36" optype="continuous" dataType="double"/>
		<DataField name="x37" optype="continuous" dataType="double"/>
		<DataField name="x39" optype="continuous" dataType="double"/>
		<DataField name="x42" optype="continuous" dataType="double"/>
		<DataField name="x43" optype="continuous" dataType="double"/>
		<DataField name="x53" optype="continuous" dataType="double"/>
		<DataField name="x64" optype="continuous" dataType="double"/>
		<DataField name="x66" optype="continuous" dataType="double"/>
		<DataField name="x69" optype="continuous" dataType="double"/>
		<DataField name="x70" optype="continuous" dataType="double"/>
		<DataField name="x71" optype="continuous" dataType="double"/>
		<DataField name="x73" optype="continuous" dataType="double"/>
		<DataField name="x74" optype="continuous" dataType="double"/>
		<DataField name="x75" optype="continuous" dataType="double"/>
		<DataField name="x99" optype="continuous" dataType="double"/>
		<DataField name="x100" optype="continuous" dataType="double"/>
		<DataField name="x105" optype="continuous" dataType="double"/>
		<DataField name="x125" optype="continuous" dataType="double"/>
		<DataField name="x127" optype="continuous" dataType="double"/>
		<DataField name="x129" optype="continuous" dataType="double"/>
		<DataField name="x132" optype="continuous" dataType="double"/>
		<DataField name="x133" optype="continuous" dataType="double"/>
		<DataField name="x138" optype="continuous" dataType="double"/>
		<DataField name="x139" optype="continuous" dataType="double"/>
		<DataField name="x161" optype="continuous" dataType="double"/>
		<DataField name="x162" optype="continuous" dataType="double"/>
		<DataField name="x163" optype="continuous" dataType="double"/>
		<DataField name="x164" optype="continuous" dataType="double"/>
		<DataField name="x165" optype="continuous" dataType="double"/>
		<DataField name="x167" optype="continuous" dataType="double"/>
		<DataField name="x168" optype="continuous" dataType="double"/>
		<DataField name="x169" optype="continuous" dataType="double"/>
		<DataField name="x189" optype="continuous" dataType="double"/>
		<DataField name="x190" optype="continuous" dataType="double"/>
		<DataField name="x197" optype="continuous" dataType="double"/>
		<DataField name="x199" optype="continuous" dataType="double"/>
		<DataField name="x200" optype="continuous" dataType="double"/>
		<DataField name="x225" optype="continuous" dataType="double"/>
		<DataField name="x226" optype="continuous" dataType="double"/>
		<DataField name="x229" optype="continuous" dataType="double"/>
		<DataField name="x230" optype="continuous" dataType="double"/>
		<DataField name="x231" optype="continuous" dataType="double"/>
		<DataField name="x232" optype="continuous" dataType="double"/>
		<DataField name="x253" optype="continuous" dataType="double"/>
		<DataField name="x255" optype="continuous" dataType="double"/>
		<DataField name="x258" optype="continuous" dataType="double"/>
		<DataField name="x264" optype="continuous" dataType="double"/>
		<DataField name="x288" optype="continuous" dataType="double"/>
		<DataField name="x289" optype="continuous" dataType="double"/>
		<DataField name="x292" optype="continuous" dataType="double"/>
		<DataField name="x293" optype="continuous" dataType="double"/>
		<DataField name="x294" optype="continuous" dataType="double"/>
		<DataField name="x295" optype="continuous" dataType="double"/>
		<DataField name="x318" optype="continuous" dataType="double"/>
		<DataField name="x321" optype="continuous" dataType="double"/>
		<DataField name="x322" optype="continuous" dataType="double"/>
		<DataField name="x323" optype="continuous" dataType="double"/>
		<DataField name="x326" optype="continuous" dataType="double"/>
		<DataField name="x351" optype="continuous" dataType="double"/>
		<DataField name="x352" optype="continuous" dataType="double"/>
		<DataField name="x356" optype="continuous" dataType="double"/>
		<DataField name="x357" optype="continuous" dataType="double"/>
		<DataField name="x358" optype="continuous" dataType="double"/>
		<DataField name="x369" optype="continuous" dataType="double"/>
		<DataField name="x381" optype="continuous" dataType="double"/>
		<DataField name="x384" optype="continuous" dataType="double"/>
		<DataField name="x385" optype="continuous" dataType="double"/>
		<DataField name="x386" optype="continuous" dataType="double"/>
		<DataField name="x388" optype="continuous" dataType="double"/>
		<DataField name="x389" optype="continuous" dataType="double"/>
		<DataField name="x390" optype="continuous" dataType="double"/>
		<DataField name="x391" optype="continuous" dataType="double"/>
		<DataField name="x392" optype="continuous" dataType="double"/>
		<DataField name="x414" optype="continuous" dataType="double"/>
		<DataField name="x415" optype="continuous" dataType="double"/>
		<DataField name="x418" optype="continuous" dataType="double"/>
		<DataField name="x420" optype="continuous" dataType="double"/>
		<DataField name="x421" optype="continuous" dataType="double"/>
		<DataField name="x442" optype="continuous" dataType="double"/>
		<DataField name="x446" optype="continuous" dataType="double"/>
		<DataField name="x448" optype="continuous" dataType="double"/>
		<DataField name="x449" optype="continuous" dataType="double"/>
		<DataField name="x453" optype="continuous" dataType="double"/>
		<DataField name="x456" optype="continuous" dataType="double"/>
		<DataField name="x461" optype="continuous" dataType="double"/>
		<DataField name="x477" optype="continuous" dataType="double"/>
		<DataField name="x479" optype="continuous" dataType="double"/>
		<DataField name="x482" optype="continuous" dataType="double"/>
		<DataField name="x483" optype="continuous" dataType="double"/>
		<DataField name="x484" optype="continuous" dataType="double"/>
		<DataField name="x505" optype="continuous" dataType="double"/>
		<DataField name="x507" optype="continuous" dataType="double"/>
		<DataField name="x508" optype="continuous" dataType="double"/>
		<DataField name="x511" optype="continuous" dataType="double"/>
		<DataField name="x515" optype="continuous" dataType="double"/>
		<DataField name="x516" optype="continuous" dataType="double"/>
		<DataField name="x540" optype="continuous" dataType="double"/>
		<DataField name="x541" optype="continuous" dataType="double"/>
		<DataField name="x543" optype="continuous" dataType="double"/>
		<DataField name="x545" optype="continuous" dataType="double"/>
		<DataField name="x546" optype="continuous" dataType="double"/>
		<DataField name="x547" optype="continuous" dataType="double"/>
		<DataField name="x568" optype="continuous" dataType="double"/>
		<DataField name="x570" optype="continuous" dataType="double"/>
		<DataField name="x573" optype="continuous" dataType="double"/>
		<DataField name="x574" optype="continuous" dataType="double"/>
		<DataField name="x575" optype="continuous" dataType="double"/>
		<DataField name="x578" optype="continuous" dataType="double"/>
		<DataField name="x579" optype="continuous" dataType="double"/>
		<DataField name="x603" optype="continuous" dataType="double"/>
		<DataField name="x604" optype="continuous" dataType="double"/>
		<DataField name="x608" optype="continuous" dataType="double"/>
		<DataField name="x609" optype="continuous" dataType="double"/>
		<DataField name="x626" optype="continuous" dataType="double"/>
		<DataField name="x631" optype="continuous" dataType="double"/>
		<DataField name="x637" optype="continuous" dataType="double"/>
		<DataField name="x638" optype="continuous" dataType="double"/>
		<DataField name="x642" optype="continuous" dataType="double"/>
		<DataField name="x652" optype="continuous" dataType="double"/>
		<DataField name="x666" optype="continuous" dataType="double"/>
		<DataField name="x672" optype="continuous" dataType="double"/>
		<DataField name="x673" optype="continuous" dataType="double"/>
		<DataField name="x692" optype="continuous" dataType="double"/>
		<DataField name="x694" optype="continuous" dataType="double"/>
		<DataField name="x696" optype="continuous" dataType="double"/>
		<DataField name="x699" optype="continuous" dataType="double"/>
		<DataField name="x700" optype="continuous" dataType="double"/>
		<DataField name="x703" optype="continuous" dataType="double"/>
		<DataField name="x704" optype="continuous" dataType="double"/>
		<DataField name="x705" optype="continuous" dataType="double"/>
		<DataField name="x729" optype="continuous" dataType="double"/>
		<DataField name="x734" optype="continuous" dataType="double"/>
		<DataField name="x735" optype="continuous" dataType="double"/>
		<DataField name="x757" optype="continuous" dataType="double"/>
		<DataField name="x762" optype="continuous" dataType="double"/>
		<DataField name="x766" optype="continuous" dataType="double"/>
		<DataField name="x767" optype="continuous" dataType="double"/>
		<DataField name="x768" optype="continuous" dataType="double"/>
		<DataField name="x769" optype="continuous" dataType="double"/>
		<DataField name="x770" optype="continuous" dataType="double"/>
		<DataField name="x791" optype="continuous" dataType="double"/>
		<DataField name="x792" optype="continuous" dataType="double"/>
		<DataField name="x793" optype="continuous" dataType="double"/>
		<DataField name="x797" optype="continuous" dataType="double"/>
		<DataField name="x798" optype="continuous" dataType="double"/>
		<DataField name="x799" optype="continuous" dataType="double"/>
		<DataField name="x826" optype="continuous" dataType="double"/>
		<DataField name="x827" optype="continuous" dataType="double"/>
		<DataField name="x830" optype="continuous" dataType="double"/>
		<DataField name="x831" optype="continuous" dataType="double"/>
		<DataField name="x833" optype="continuous" dataType="double"/>
		<DataField name="x855" optype="continuous" dataType="double"/>
		<DataField name="x861" optype="continuous" dataType="double"/>
		<DataField name="x862" optype="continuous" dataType="double"/>
		<DataField name="x883" optype="continuous" dataType="double"/>
		<DataField name="x885" optype="continuous" dataType="double"/>
		<DataField name="x887" optype="continuous" dataType="double"/>
		<DataField name="x890" optype="continuous" dataType="double"/>
		<DataField name="x891" optype="continuous" dataType="double"/>
		<DataField name="x894" optype="continuous" dataType="double"/>
		<DataField name="x895" optype="continuous" dataType="double"/>
		<DataField name="x896" optype="continuous" dataType="double"/>
		<DataField name="x918" optype="continuous" dataType="double"/>
		<DataField name="x919" optype="continuous" dataType="double"/>
		<DataField name="x920" optype="continuous" dataType="double"/>
		<DataField name="x924" optype="continuous" dataType="double"/>
		<DataField name="x925" optype="continuous" dataType="double"/>
		<DataField name="x926" optype="continuous" dataType="double"/>
		<DataField name="x946" optype="continuous" dataType="double"/>
		<DataField name="x948" optype="continuous" dataType="double"/>
		<DataField name="x950" optype="continuous" dataType="double"/>
		<DataField name="x951" optype="continuous" dataType="double"/>
		<DataField name="x952" optype="continuous" dataType="double"/>
		<DataField name="x953" optype="continuous" dataType="double"/>
		<DataField name="x955" optype="continuous" dataType="double"/>
		<DataField name="x956" optype="continuous" dataType="double"/>
		<DataField name="x957" optype="continuous" dataType="double"/>
		<DataField name="x958" optype="continuous" dataType="double"/>
		<DataField name="x960" optype="continuous" dataType="double"/>
		<DataField name="x965" optype="continuous" dataType="double"/>
		<DataField name="x981" optype="continuous" dataType="double"/>
		<DataField name="x986" optype="continuous" dataType="double"/>
		<DataField name="x987" optype="continuous" dataType="double"/>
		<DataField name="x988" optype="continuous" dataType="double"/>
		<DataField name="x1001" optype="continuous" dataType="double"/>
		<DataField name="x1003" optype="continuous" dataType="double"/>
		<DataField name="x1009" optype="continuous" dataType="double"/>
		<DataField name="x1011" optype="continuous" dataType="double"/>
		<DataField name="x1012" optype="continuous" dataType="double"/>
		<DataField name="x1014" optype="continuous" dataType="double"/>
		<DataField name="x1015" optype="continuous" dataType="double"/>
		<DataField name="x1016" optype="continuous" dataType="double"/>
		<DataField name="x1020" optype="continuous" dataType="double"/>
		<DataField name="x1021" optype="continuous" dataType="double"/>
		<DataField name="x1044" optype="continuous" dataType="double"/>
		<DataField name="x1045" optype="continuous" dataType="double"/>
		<DataField name="x1047" optype="continuous" dataType="double"/>
		<DataField name="x1049" optype="continuous" dataType="double"/>
		<DataField name="x1050" optype="continuous" dataType="double"/>
		<DataField name="x1051" optype="continuous" dataType="double"/>
		<DataField name="x1072" optype="continuous" dataType="double"/>
		<DataField name="x1074" optype="continuous" dataType="double"/>
		<DataField name="x1077" optype="continuous" dataType="double"/>
		<DataField name="x1078" optype="continuous" dataType="double"/>
		<DataField name="x1079" optype="continuous" dataType="double"/>
		<DataField name="x1082" optype="continuous" dataType="double"/>
		<DataField name="x1083" optype="continuous" dataType="double"/>
		<DataField name="x1107" optype="continuous" dataType="double"/>
		<DataField name="x1108" optype="continuous" dataType="double"/>
		<DataField name="x1109" optype="continuous" dataType="double"/>
		<DataField name="x1111" optype="continuous" dataType="double"/>
		<DataField name="x1112" optype="continuous" dataType="double"/>
		<DataField name="x1113" optype="continuous" dataType="double"/>
		<DataField name="x1114" optype="continuous" dataType="double"/>
		<DataField name="x1135" optype="continuous" dataType="double"/>
		<DataField name="x1137" optype="continuous" dataType="double"/>
		<DataField name="x1141" optype="continuous" dataType="double"/>
		<DataField name="x1142" optype="continuous" dataType="double"/>
		<DataField name="x1145" optype="continuous" dataType="double"/>
		<DataField name="x1146" optype="continuous" dataType="double"/>
		<DataField name="x1147" optype="continuous" dataType="double"/>
		<DataField name="x1170" optype="continuous" dataType="double"/>
		<DataField name="x1171" optype="continuous" dataType="double"/>
		<DataField name="x1172" optype="continuous" dataType="double"/>
		<DataField name="x1175" optype="continuous" dataType="double"/>
		<DataField name="x1176" optype="continuous" dataType="double"/>
		<DataField name="x1177" optype="continuous" dataType="double"/>
		<DataField name="x1198" optype="continuous" dataType="double"/>
		<DataField name="x1200" optype="continuous" dataType="double"/>
		<DataField name="x1201" optype="continuous" dataType="double"/>
		<DataField name="x1202" optype="continuous" dataType="double"/>
		<DataField name="x1204" optype="continuous" dataType="double"/>
		<DataField name="x1205" optype="continuous" dataType="double"/>
		<DataField name="x1209" optype="continuous" dataType="double"/>
		<DataField name="x1210" optype="continuous" dataType="double"/>
		<DataField name="x1231" optype="continuous" dataType="double"/>
		<DataField name="x1233" optype="continuous" dataType="double"/>
		<DataField name="x1234" optype="continuous" dataType="double"/>
		<DataField name="x1238" optype="continuous" dataType="double"/>
		<DataField name="x1239" optype="continuous" dataType="double"/>
		<DataField name="x1240" optype="continuous" dataType="double"/>
	</DataDictionary>
	<MiningModel functionName="classification" algorithmName="LightGBM">
		<MiningSchema>
			<Extension name="X-FeatureImportances">
				<InlineTable>
					<Extension name="numberOfImportances" value="251"/>
					<Extension name="numberOfNonZeroImportances" value="251"/>
					<Extension name="sumOfImportances" value="3000.0"/>
					<Extension name="minImportance" value="1.0"/>
					<Extension name="maxImportance" value="139.0"/>
					<row>
						<data:name>x1</data:name>
						<data:importance>4.0</data:importance>
					</row>
					<row>
						<data:name>x3</data:name>
						<data:importance>4.0</data:importance>
					</row>
					<row>
						<data:name>x5</data:name>
						<data:importance>2.0</data:importance>
					</row>
					<row>
						<data:name>x6</data:name>
						<data:importance>6.0</data:importance>
					</row>
					<row>
						<data:name>x7</data:name>
						<data:importance>3.0</data:importance>
					</row>
					<row>
						<data:name>x8</data:name>
						<data:importance>3.0</data:importance>
					</row>
					<row>
						<data:name>x9</data:name>
						<data:importance>1.0</data:importance>
					</row>
					<row>
						<data:name>x12</data:name>
						<data:importance>4.0</data:importance>
					</row>
					<row>
						<data:name>x13</data:name>
						<data:importance>6.0</data:importance>
					</row>
					<row>
						<data:name>x34</data:name>
						<data:importance>1.0</data:importance>
					</row>
					<row>
						<data:name>x36</data:name>
						<data:importance>52.0</data:importance>
					</row>
					<row>
						<data:name>x37</data:name>
						<data:importance>17.0</data:importance>
					</row>
					<row>
						<data:name>x39</data:name>
						<data:importance>3.0</data:importance>
					</row>
					<row>
						<data:name>x42</data:name>
						<data:importance>50.0</data:importance>
					</row>
					<row>
						<data:name>x43</data:name>
						<data:importance>37.0</data:importance>
					</row>
					<row>
						<data:name>x53</data:name>
						<data:importance>1.0</data:importance>
					</row>
					<row>
						<data:name>x64</data:name>
						<data:importance>13.0</data:importance>
					</row>
					<row>
						<data:name>x66</data:name>
						<data:importance>6.0</data:importance>
					</row>
					<row>
						<data:name>x69</data:name>
						<data:importance>4.0</data:importance>
					</row>
					<row>
						<data:name>x70</data:name>
						<data:importance>6.0</data:importance>
					</row>
					<row>
						<data:name>x71</data:name>
						<data:importance>11.0</data:importance>
					</row>
					<row>
						<data:name>x73</data:name>
						<data:importance>5.0</data:importance>
					</row>
					<row>
						<data:name>x74</data:name>
						<data:importance>4.0</data:importance>
					</row>
					<row>
						<data:name>x75</data:name>
						<data:importance>1.0</data:importance>
					</row>
					<row>
						<data:name>x99</data:name>
						<data:importance>72.0</data:importance>
					</row>
					<row>
						<data:name>x100</data:name>
						<data:importance>7.0</data:importance>
					</row>
					<row>
						<data:name>x105</data:name>
						<data:importance>2.0</data:importance>
					</row>
					<row>
						<data:name>x125</data:name>
						<data:importance>1.0</data:importance>
					</row>
					<row>
						<data:name>x127</data:name>
						<data:importance>26.0</data:importance>
					</row>
					<row>
						<data:name>x129</data:name>
						<data:importance>2.0</data:importance>
					</row>
					<row>
						<data:name>x132</data:name>
						<data:importance>1.0</data:importance>
					</row>
					<row>
						<data:name>x133</data:name>
						<data:importance>6.0</data:importance>
					</row>
					<row>
						<data:name>x138</data:name>
						<data:importance>4.0</data:importance>
					</row>
					<row>
						<data:name>x139</data:name>
						<data:importance>5.0</data:importance>
					</row>
					<row>
						<data:name>x161</data:name>
						<data:importance>13.0</data:importance>
					</row>
					<row>
						<data:name>x162</data:name>
						<data:importance>82.0</data:importance>
					</row>
					<row>
						<data:name>x163</data:name>
						<data:importance>2.0</data:importance>
					</row>
					<row>
						<data:name>x164</data:name>
						<data:importance>6.0</data:importance>
					</row>
					<row>
						<data:name>x165</data:name>
						<data:importance>4.0</data:importance>
					</row>
					<row>
						<data:name>x167</data:name>
						<data:importance>4.0</data:importance>
					</row>
					<row>
						<data:name>x168</data:name>
						<data:importance>10.0</data:importance>
					</row>
					<row>
						<data:name>x169</data:name>
						<data:importance>3.0</data:importance>
					</row>
					<row>
						<data:name>x189</data:name>
						<data:importance>2.0</data:importance>
					</row>
					<row>
						<data:name>x190</data:name>
						<data:importance>1.0</data:importance>
					</row>
					<row>
						<data:name>x197</data:name>
						<data:importance>2.0</data:importance>
					</row>
					<row>
						<data:name>x199</data:name>
						<data:importance>6.0</data:importance>
					</row>
					<row>
						<data:name>x200</data:name>
						<data:importance>1.0</data:importance>
					</row>
					<row>
						<data:name>x225</data:name>
						<data:importance>98.0</data:importance>
					</row>
					<row>
						<data:name>x226</data:name>
						<data:importance>2.0</data:importance>
					</row>
					<row>
						<data:name>x229</data:name>
						<data:importance>2.0</data:importance>
					</row>
					<row>
						<data:name>x230</data:name>
						<data:importance>4.0</data:importance>
					</row>
					<row>
						<data:name>x231</data:name>
						<data:importance>21.0</data:importance>
					</row>
					<row>
						<data:name>x232</data:name>
						<data:importance>6.0</data:importance>
					</row>
					<row>
						<data:name>x253</data:name>
						<data:importance>5.0</data:importance>
					</row>
					<row>
						<data:name>x255</data:name>
						<data:importance>8.0</data:importance>
					</row>
					<row>
						<data:name>x258</data:name>
						<data:importance>1.0</data:importance>
					</row>
					<row>
						<data:name>x264</data:name>
						<data:importance>5.0</data:importance>
					</row>
					<row>
						<data:name>x288</data:name>
						<data:importance>4.0</data:importance>
					</row>
					<row>
						<data:name>x289</data:name>
						<data:importance>2.0</data:importance>
					</row>
					<row>
						<data:name>x292</data:name>
						<data:importance>1.0</data:importance>
					</row>
					<row>
						<data:name>x293</data:name>
						<data:importance>1.0</data:importance>
					</row>
					<row>
						<data:name>x294</data:name>
						<data:importance>5.0</data:importance>
					</row>
					<row>
						<data:name>x295</data:name>
						<data:importance>2.0</data:importance>
					</row>
					<row>
						<data:name>x318</data:name>
						<data:importance>1.0</data:importance>
					</row>
					<row>
						<data:name>x321</data:name>
						<data:importance>1.0</data:importance>
					</row>
					<row>
						<data:name>x322</data:name>
						<data:importance>1.0</data:importance>
					</row>
					<row>
						<data:name>x323</data:name>
						<data:importance>1.0</data:importance>
					</row>
					<row>
						<data:name>x326</data:name>
						<data:importance>9.0</data:importance>
					</row>
					<row>
						<data:name>x351</data:name>
						<data:importance>10.0</data:importance>
					</row>
					<row>
						<data:name>x352</data:name>
						<data:importance>3.0</data:importance>
					</row>
					<row>
						<data:name>x356</data:name>
						<data:importance>5.0</data:importance>
					</row>
					<row>
						<data:name>x357</data:name>
						<data:importance>14.0</data:importance>
					</row>
					<row>
						<data:name>x358</data:name>
						<data:importance>20.0</data:importance>
					</row>
					<row>
						<data:name>x369</data:name>
						<data:importance>1.0</data:importance>
					</row>
					<row>
						<data:name>x381</data:name>
						<data:importance>5.0</data:importance>
					</row>
					<row>
						<data:name>x384</data:name>
						<data:importance>4.0</data:importance>
					</row>
					<row>
						<data:name>x385</data:name>
						<data:importance>1.0</data:importance>
					</row>
					<row>
						<data:name>x386</data:name>
						<data:importance>8.0</data:importance>
					</row>
					<row>
						<data:name>x388</data:name>
						<data:importance>20.0</data:importance>
					</row>
					<row>
						<data:name>x389</data:name>
						<data:importance>1.0</data:importance>
					</row>
					<row>
						<data:name>x390</data:name>
						<data:importance>9.0</data:importance>
					</row>
					<row>
						<data:name>x391</data:name>
						<data:importance>2.0</data:importance>
					</row>
					<row>
						<data:name>x392</data:name>
						<data:importance>1.0</data:importance>
					</row>
					<row>
						<data:name>x414</data:name>
						<data:importance>16.0</data:importance>
					</row>
					<row>
						<data:name>x415</data:name>
						<data:importance>1.0</data:importance>
					</row>
					<row>
						<data:name>x418</data:name>
						<data:importance>1.0</data:importance>
					</row>
					<row>
						<data:name>x420</data:name>
						<data:importance>4.0</data:importance>
					</row>
					<row>
						<data:name>x421</data:name>
						<data:importance>3.0</data:importance>
					</row>
					<row>
						<data:name>x442</data:name>
						<data:importance>16.0</data:importance>
					</row>
					<row>
						<data:name>x446</data:name>
						<data:importance>7.0</data:importance>
					</row>
					<row>
						<data:name>x448</data:name>
						<data:importance>9.0</data:importance>
					</row>
					<row>
						<data:name>x449</data:name>
						<data:importance>14.0</data:importance>
					</row>
					<row>
						<data:name>x453</data:name>
						<data:importance>2.0</data:importance>
					</row>
					<row>
						<data:name>x456</data:name>
						<data:importance>1.0</data:importance>
					</row>
					<row>
						<data:name>x461</data:name>
						<data:importance>1.0</data:importance>
					</row>
					<row>
						<data:name>x477</data:name>
						<data:importance>31.0</data:importance>
					</row>
					<row>
						<data:name>x479</data:name>
						<data:importance>1.0</data:importance>
					</row>
					<row>
						<data:name>x482</data:name>
						<data:importance>4.0</data:importance>
					</row>
					<row>
						<data:name>x483</data:name>
						<data:importance>2.0</data:importance>
					</row>
					<row>
						<data:name>x484</data:name>
						<data:importance>22.0</data:importance>
					</row>
					<row>
						<data:name>x505</data:name>
						<data:importance>2.0</data:importance>
					</row>
					<row>
						<data:name>x507</data:name>
						<data:importance>6.0</data:importance>
					</row>
					<row>
						<data:name>x508</data:name>
						<data:importance>1.0</data:importance>
					</row>
					<row>
						<data:name>x511</data:name>
						<data:importance>4.0</data:importance>
					</row>
					<row>
						<data:name>x515</data:name>
						<data:importance>5.0</data:importance>
					</row>
					<row>
						<data:name>x516</data:name>
						<data:importance>1.0</data:importance>
					</row>
					<row>
						<data:name>x540</data:name>
						<data:importance>13.0</data:importance>
					</row>
					<row>
						<data:name>x541</data:name>
						<data:importance>3.0</data:importance>
					</row>
					<row>
						<data:name>x543</data:name>
						<data:importance>7.0</data:importance>
					</row>
					<row>
						<data:name>x545</data:name>
						<data:importance>5.0</data:importance>
					</row>
					<row>
						<data:name>x546</data:name>
						<data:importance>8.0</data:importance>
					</row>
					<row>
						<data:name>x547</data:name>
						<data:importance>11.0</data:importance>
					</row>
					<row>
						<data:name>x568</data:name>
						<data:importance>12.0</data:importance>
					</row>
					<row>
						<data:name>x570</data:name>
						<data:importance>2.0</data:importance>
					</row>
					<row>
						<data:name>x573</data:name>
						<data:importance>9.0</data:importance>
					</row>
					<row>
						<data:name>x574</data:name>
						<data:importance>5.0</data:importance>
					</row>
					<row>
						<data:name>x575</data:name>
						<data:importance>3.0</data:importance>
					</row>
					<row>
						<data:name>x578</data:name>
						<data:importance>4.0</data:importance>
					</row>
					<row>
						<data:name>x579</data:name>
						<data:importance>9.0</data:importance>
					</row>
					<row>
						<data:name>x603</data:name>
						<data:importance>48.0</data:importance>
					</row>
					<row>
						<data:name>x604</data:name>
						<data:importance>5.0</data:importance>
					</row>
					<row>
						<data:name>x608</data:name>
						<data:importance>8.0</data:importance>
					</row>
					<row>
						<data:name>x609</data:name>
						<data:importance>1.0</data:importance>
					</row>
					<row>
						<data:name>x626</data:name>
						<data:importance>4.0</data:importance>
					</row>
					<row>
						<data:name>x631</data:name>
						<data:importance>4.0</data:importance>
					</row>
					<row>
						<data:name>x637</data:name>
						<data:importance>3.0</data:importance>
					</row>
					<row>
						<data:name>x638</data:name>
						<data:importance>2.0</data:importance>
					</row>
					<row>
						<data:name>x642</data:name>
						<data:importance>10.0</data:importance>
					</row>
					<row>
						<data:name>x652</data:name>
						<data:importance>1.0</data:importance>
					</row>
					<row>
						<data:name>x666</data:name>
						<data:importance>49.0</data:importance>
					</row>
					<row>
						<data:name>x672</data:name>
						<data:importance>2.0</data:importance>
					</row>
					<row>
						<data:name>x673</data:name>
						<data:importance>5.0</data:importance>
					</row>
					<row>
						<data:name>x692</data:name>
						<data:importance>2.0</data:importance>
					</row>
					<row>
						<data:name>x694</data:name>
						<data:importance>22.0</data:importance>
					</row>
					<row>
						<data:name>x696</data:name>
						<data:importance>5.0</data:importance>
					</row>
					<row>
						<data:name>x699</data:name>
						<data:importance>3.0</data:importance>
					</row>
					<row>
						<data:name>x700</data:name>
						<data:importance>2.0</data:importance>
					</row>
					<row>
						<data:name>x703</data:name>
						<data:importance>2.0</data:importance>
					</row>
					<row>
						<data:name>x704</data:name>
						<data:importance>5.0</data:importance>
					</row>
					<row>
						<data:name>x705</data:name>
						<data:importance>8.0</data:importance>
					</row>
					<row>
						<data:name>x729</data:name>
						<data:importance>121.0</data:importance>
					</row>
					<row>
						<data:name>x734</data:name>
						<data:importance>13.0</data:importance>
					</row>
					<row>
						<data:name>x735</data:name>
						<data:importance>10.0</data:importance>
					</row>
					<row>
						<data:name>x757</data:name>
						<data:importance>25.0</data:importance>
					</row>
					<row>
						<data:name>x762</data:name>
						<data:importance>1.0</data:importance>
					</row>
					<row>
						<data:name>x766</data:name>
						<data:importance>1.0</data:importance>
					</row>
					<row>
						<data:name>x767</data:name>
						<data:importance>5.0</data:importance>
					</row>
					<row>
						<data:name>x768</data:name>
						<data:importance>2.0</data:importance>
					</row>
					<row>
						<data:name>x769</data:name>
						<data:importance>1.0</data:importance>
					</row>
					<row>
						<data:name>x770</data:name>
						<data:importance>3.0</data:importance>
					</row>
					<row>
						<data:name>x791</data:name>
						<data:importance>3.0</data:importance>
					</row>
					<row>
						<data:name>x792</data:name>
						<data:importance>3.0</data:importance>
					</row>
					<row>
						<data:name>x793</data:name>
						<data:importance>26.0</data:importance>
					</row>
					<row>
						<data:name>x797</data:name>
						<data:importance>5.0</data:importance>
					</row>
					<row>
						<data:name>x798</data:name>
						<data:importance>12.0</data:importance>
					</row>
					<row>
						<data:name>x799</data:name>
						<data:importance>17.0</data:importance>
					</row>
					<row>
						<data:name>x826</data:name>
						<data:importance>1.0</data:importance>
					</row>
					<row>
						<data:name>x827</data:name>
						<data:importance>2.0</data:importance>
					</row>
					<row>
						<data:name>x830</data:name>
						<data:importance>3.0</data:importance>
					</row>
					<row>
						<data:name>x831</data:name>
						<data:importance>3.0</data:importance>
					</row>
					<row>
						<data:name>x833</data:name>
						<data:importance>3.0</data:importance>
					</row>
					<row>
						<data:name>x855</data:name>
						<data:importance>33.0</data:importance>
					</row>
					<row>
						<data:name>x861</data:name>
						<data:importance>45.0</data:importance>
					</row>
					<row>
						<data:name>x862</data:name>
						<data:importance>2.0</data:importance>
					</row>
					<row>
						<data:name>x883</data:name>
						<data:importance>10.0</data:importance>
					</row>
					<row>
						<data:name>x885</data:name>
						<data:importance>2.0</data:importance>
					</row>
					<row>
						<data:name>x887</data:name>
						<data:importance>3.0</data:importance>
					</row>
					<row>
						<data:name>x890</data:name>
						<data:importance>17.0</data:importance>
					</row>
					<row>
						<data:name>x891</data:name>
						<data:importance>1.0</data:importance>
					</row>
					<row>
						<data:name>x894</data:name>
						<data:importance>26.0</data:importance>
					</row>
					<row>
						<data:name>x895</data:name>
						<data:importance>1.0</data:importance>
					</row>
					<row>
						<data:name>x896</data:name>
						<data:importance>1.0</data:importance>
					</row>
					<row>
						<data:name>x918</data:name>
						<data:importance>10.0</data:importance>
					</row>
					<row>
						<data:name>x919</data:name>
						<data:importance>10.0</data:importance>
					</row>
					<row>
						<data:name>x920</data:name>
						<data:importance>15.0</data:importance>
					</row>
					<row>
						<data:name>x924</data:name>
						<data:importance>49.0</data:importance>
					</row>
					<row>
						<data:name>x925</data:name>
						<data:importance>30.0</data:importance>
					</row>
					<row>
						<data:name>x926</data:name>
						<data:importance>1.0</data:importance>
					</row>
					<row>
						<data:name>x946</data:name>
						<data:importance>1.0</data:importance>
					</row>
					<row>
						<data:name>x948</data:name>
						<data:importance>51.0</data:importance>
					</row>
					<row>
						<data:name>x950</data:name>
						<data:importance>9.0</data:importance>
					</row>
					<row>
						<data:name>x951</data:name>
						<data:importance>7.0</data:importance>
					</row>
					<row>
						<data:name>x952</data:name>
						<data:importance>5.0</data:importance>
					</row>
					<row>
						<data:name>x953</data:name>
						<data:importance>10.0</data:importance>
					</row>
					<row>
						<data:name>x955</data:name>
						<data:importance>4.0</data:importance>
					</row>
					<row>
						<data:name>x956</data:name>
						<data:importance>4.0</data:importance>
					</row>
					<row>
						<data:name>x957</data:name>
						<data:importance>2.0</data:importance>
					</row>
					<row>
						<data:name>x958</data:name>
						<data:importance>1.0</data:importance>
					</row>
					<row>
						<data:name>x960</data:name>
						<data:importance>3.0</data:importance>
					</row>
					<row>
						<data:name>x965</data:name>
						<data:importance>5.0</data:importance>
					</row>
					<row>
						<data:name>x981</data:name>
						<data:importance>29.0</data:importance>
					</row>
					<row>
						<data:name>x986</data:name>
						<data:importance>4.0</data:importance>
					</row>
					<row>
						<data:name>x987</data:name>
						<data:importance>7.0</data:importance>
					</row>
					<row>
						<data:name>x988</data:name>
						<data:importance>4.0</data:importance>
					</row>
					<row>
						<data:name>x1001</data:name>
						<data:importance>10.0</data:importance>
					</row>
					<row>
						<data:name>x1003</data:name>
						<data:importance>1.0</data:importance>
					</row>
					<row>
						<data:name>x1009</data:name>
						<data:importance>11.0</data:importance>
					</row>
					<row>
						<data:name>x1011</data:name>
						<data:importance>23.0</data:importance>
					</row>
					<row>
						<data:name>x1012</data:name>
						<data:importance>1.0</data:importance>
					</row>
					<row>
						<data:name>x1014</data:name>
						<data:importance>2.0</data:importance>
					</row>
					<row>
						<data:name>x1015</data:name>
						<data:importance>1.0</data:importance>
					</row>
					<row>
						<data:name>x1016</data:name>
						<data:importance>2.0</data:importance>
					</row>
					<row>
						<data:name>x1020</data:name>
						<data:importance>11.0</data:importance>
					</row>
					<row>
						<data:name>x1021</data:name>
						<data:importance>5.0</data:importance>
					</row>
					<row>
						<data:name>x1044</data:name>
						<data:importance>26.0</data:importance>
					</row>
					<row>
						<data:name>x1045</data:name>
						<data:importance>3.0</data:importance>
					</row>
					<row>
						<data:name>x1047</data:name>
						<data:importance>1.0</data:importance>
					</row>
					<row>
						<data:name>x1049</data:name>
						<data:importance>18.0</data:importance>
					</row>
					<row>
						<data:name>x1050</data:name>
						<data:importance>14.0</data:importance>
					</row>
					<row>
						<data:name>x1051</data:name>
						<data:importance>43.0</data:importance>
					</row>
					<row>
						<data:name>x1072</data:name>
						<data:importance>19.0</data:importance>
					</row>
					<row>
						<data:name>x1074</data:name>
						<data:importance>15.0</data:importance>
					</row>
					<row>
						<data:name>x1077</data:name>
						<data:importance>6.0</data:importance>
					</row>
					<row>
						<data:name>x1078</data:name>
						<data:importance>12.0</data:importance>
					</row>
					<row>
						<data:name>x1079</data:name>
						<data:importance>10.0</data:importance>
					</row>
					<row>
						<data:name>x1082</data:name>
						<data:importance>1.0</data:importance>
					</row>
					<row>
						<data:name>x1083</data:name>
						<data:importance>6.0</data:importance>
					</row>
					<row>
						<data:name>x1107</data:name>
						<data:importance>28.0</data:importance>
					</row>
					<row>
						<data:name>x1108</data:name>
						<data:importance>5.0</data:importance>
					</row>
					<row>
						<data:name>x1109</data:name>
						<data:importance>1.0</data:importance>
					</row>
					<row>
						<data:name>x1111</data:name>
						<data:importance>5.0</data:importance>
					</row>
					<row>
						<data:name>x1112</data:name>
						<data:importance>46.0</data:importance>
					</row>
					<row>
						<data:name>x1113</data:name>
						<data:importance>23.0</data:importance>
					</row>
					<row>
						<data:name>x1114</data:name>
						<data:importance>19.0</data:importance>
					</row>
					<row>
						<data:name>x1135</data:name>
						<data:importance>15.0</data:importance>
					</row>
					<row>
						<data:name>x1137</data:name>
						<data:importance>36.0</data:importance>
					</row>
					<row>
						<data:name>x1141</data:name>
						<data:importance>2.0</data:importance>
					</row>
					<row>
						<data:name>x1142</data:name>
						<data:importance>2.0</data:importance>
					</row>
					<row>
						<data:name>x1145</data:name>
						<data:importance>2.0</data:importance>
					</row>
					<row>
						<data:name>x1146</data:name>
						<data:importance>48.0</data:importance>
					</row>
					<row>
						<data:name>x1147</data:name>
						<data:importance>1.0</data:importance>
					</row>
					<row>
						<data:name>x1170</data:name>
						<data:importance>34.0</data:importance>
					</row>
					<row>
						<data:name>x1171</data:name>
						<data:importance>33.0</data:importance>
					</row>
					<row>
						<data:name>x1172</data:name>
						<data:importance>1.0</data:importance>
					</row>
					<row>
						<data:name>x1175</data:name>
						<data:importance>8.0</data:importance>
					</row>
					<row>
						<data:name>x1176</data:name>
						<data:importance>21.0</data:importance>
					</row>
					<row>
						<data:name>x1177</data:name>
						<data:importance>11.0</data:importance>
					</row>
					<row>
						<data:name>x1198</data:name>
						<data:importance>23.0</data:importance>
					</row>
					<row>
						<data:name>x1200</data:name>
						<data:importance>139.0</data:importance>
					</row>
					<row>
						<data:name>x1201</data:name>
						<data:importance>3.0</data:importance>
					</row>
					<row>
						<data:name>x1202</data:name>
						<data:importance>3.0</data:importance>
					</row>
					<row>
						<data:name>x1204</data:name>
						<data:importance>4.0</data:importance>
					</row>
					<row>
						<data:name>x1205</data:name>
						<data:importance>1.0</data:importance>
					</row>
					<row>
						<data:name>x1209</data:name>
						<data:importance>18.0</data:importance>
					</row>
					<row>
						<data:name>x1210</data:name>
						<data:importance>102.0</data:importance>
					</row>
					<row>
						<data:name>x1231</data:name>
						<data:importance>1.0</data:importance>
					</row>
					<row>
						<data:name>x1233</data:name>
						<data:importance>104.0</data:importance>
					</row>
					<row>
						<data:name>x1234</data:name>
						<data:importance>2.0</data:importance>
					</row>
					<row>
						<data:name>x1238</data:name>
						<data:importance>7.0</data:importance>
					</row>
					<row>
						<data:name>x1239</data:name>
						<data:importance>58.0</data:importance>
					</row>
					<row>
						<data:name>x1240</data:name>
						<data:importance>65.0</data:importance>
					</row>
				</InlineTable>
			</Extension>
			<MiningField name="y" usageType="target"/>
			<MiningField name="x1" importance="4.0"/>
			<MiningField name="x3" importance="4.0"/>
			<MiningField name="x5" importance="2.0"/>
			<MiningField name="x6" importance="6.0"/>
			<MiningField name="x7" importance="3.0"/>
			<MiningField name="x8" importance="3.0"/>
			<MiningField name="x9" importance="1.0"/>
			<MiningField name="x12" importance="4.0"/>
			<MiningField name="x13" importance="6.0"/>
			<MiningField name="x34" importance="1.0"/>
			<MiningField name="x36" importance="52.0"/>
			<MiningField name="x37" importance="17.0"/>
			<MiningField name="x39" importance="3.0"/>
			<MiningField name="x42" importance="50.0"/>
			<MiningField name="x43" importance="37.0"/>
			<MiningField name="x53" importance="1.0"/>
			<MiningField name="x64" importance="13.0"/>
			<MiningField name="x66" importance="6.0"/>
			<MiningField name="x69" importance="4.0"/>
			<MiningField name="x70" importance="6.0"/>
			<MiningField name="x71" importance="11.0"/>
			<MiningField name="x73" importance="5.0"/>
			<MiningField name="x74" importance="4.0"/>
			<MiningField name="x75" importance="1.0"/>
			<MiningField name="x99" importance="72.0"/>
			<MiningField name="x100" importance="7.0"/>
			<MiningField name="x105" importance="2.0"/>
			<MiningField name="x125" importance="1.0"/>
			<MiningField name="x127" importance="26.0"/>
			<MiningField name="x129" importance="2.0"/>
			<MiningField name="x132" importance="1.0"/>
			<MiningField name="x133" importance="6.0"/>
			<MiningField name="x138" importance="4.0"/>
			<MiningField name="x139" importance="5.0"/>
			<MiningField name="x161" importance="13.0"/>
			<MiningField name="x162" importance="82.0"/>
			<MiningField name="x163" importance="2.0"/>
			<MiningField name="x164" importance="6.0"/>
			<MiningField name="x165" importance="4.0"/>
			<MiningField name="x167" importance="4.0"/>
			<MiningField name="x168" importance="10.0"/>
			<MiningField name="x169" importance="3.0"/>
			<MiningField name="x189" importance="2.0"/>
			<MiningField name="x190" importance="1.0"/>
			<MiningField name="x197" importance="2.0"/>
			<MiningField name="x199" importance="6.0"/>
			<MiningField name="x200" importance="1.0"/>
			<MiningField name="x225" importance="98.0"/>
			<MiningField name="x226" importance="2.0"/>
			<MiningField name="x229" importance="2.0"/>
			<MiningField name="x230" importance="4.0"/>
			<MiningField name="x231" importance="21.0"/>
			<MiningField name="x232" importance="6.0"/>
			<MiningField name="x253" importance="5.0"/>
			<MiningField name="x255" importance="8.0"/>
			<MiningField name="x258" importance="1.0"/>
			<MiningField name="x264" importance="5.0"/>
			<MiningField name="x288" importance="4.0"/>
			<MiningField name="x289" importance="2.0"/>
			<MiningField name="x292" importance="1.0"/>
			<MiningField name="x293" importance="1.0"/>
			<MiningField name="x294" importance="5.0"/>
			<MiningField name="x295" importance="2.0"/>
			<MiningField name="x318" importance="1.0"/>
			<MiningField name="x321" importance="1.0"/>
			<MiningField name="x322" importance="1.0"/>
			<MiningField name="x323" importance="1.0"/>
			<MiningField name="x326" importance="9.0"/>
			<MiningField name="x351" importance="10.0"/>
			<MiningField name="x352" importance="3.0"/>
			<MiningField name="x356" importance="5.0"/>
			<MiningField name="x357" importance="14.0"/>
			<MiningField name="x358" importance="20.0"/>
			<MiningField name="x369" importance="1.0"/>
			<MiningField name="x381" importance="5.0"/>
			<MiningField name="x384" importance="4.0"/>
			<MiningField name="x385" importance="1.0"/>
			<MiningField name="x386" importance="8.0"/>
			<MiningField name="x388" importance="20.0"/>
			<MiningField name="x389" importance="1.0"/>
			<MiningField name="x390" importance="9.0"/>
			<MiningField name="x391" importance="2.0"/>
			<MiningField name="x392" importance="1.0"/>
			<MiningField name="x414" importance="16.0"/>
			<MiningField name="x415" importance="1.0"/>
			<MiningField name="x418" importance="1.0"/>
			<MiningField name="x420" importance="4.0"/>
			<MiningField name="x421" importance="3.0"/>
			<MiningField name="x442" importance="16.0"/>
			<MiningField name="x446" importance="7.0"/>
			<MiningField name="x448" importance="9.0"/>
			<MiningField name="x449" importance="14.0"/>
			<MiningField name="x453" importance="2.0"/>
			<MiningField name="x456" importance="1.0"/>
			<MiningField name="x461" importance="1.0"/>
			<MiningField name="x477" importance="31.0"/>
			<MiningField name="x479" importance="1.0"/>
			<MiningField name="x482" importance="4.0"/>
			<MiningField name="x483" importance="2.0"/>
			<MiningField name="x484" importance="22.0"/>
			<MiningField name="x505" importance="2.0"/>
			<MiningField name="x507" importance="6.0"/>
			<MiningField name="x508" importance="1.0"/>
			<MiningField name="x511" importance="4.0"/>
			<MiningField name="x515" importance="5.0"/>
			<MiningField name="x516" importance="1.0"/>
			<MiningField name="x540" importance="13.0"/>
			<MiningField name="x541" importance="3.0"/>
			<MiningField name="x543" importance="7.0"/>
			<MiningField name="x545" importance="5.0"/>
			<MiningField name="x546" importance="8.0"/>
			<MiningField name="x547" importance="11.0"/>
			<MiningField name="x568" importance="12.0"/>
			<MiningField name="x570" importance="2.0"/>
			<MiningField name="x573" importance="9.0"/>
			<MiningField name="x574" importance="5.0"/>
			<MiningField name="x575" importance="3.0"/>
			<MiningField name="x578" importance="4.0"/>
			<MiningField name="x579" importance="9.0"/>
			<MiningField name="x603" importance="48.0"/>
			<MiningField name="x604" importance="5.0"/>
			<MiningField name="x608" importance="8.0"/>
			<MiningField name="x609" importance="1.0"/>
			<MiningField name="x626" importance="4.0"/>
			<MiningField name="x631" importance="4.0"/>
			<MiningField name="x637" importance="3.0"/>
			<MiningField name="x638" importance="2.0"/>
			<MiningField name="x642" importance="10.0"/>
			<MiningField name="x652" importance="1.0"/>
			<MiningField name="x666" importance="49.0"/>
			<MiningField name="x672" importance="2.0"/>
			<MiningField name="x673" importance="5.0"/>
			<MiningField name="x692" importance="2.0"/>
			<MiningField name="x694" importance="22.0"/>
			<MiningField name="x696" importance="5.0"/>
			<MiningField name="x699" importance="3.0"/>
			<MiningField name="x700" importance="2.0"/>
			<MiningField name="x703" importance="2.0"/>
			<MiningField name="x704" importance="5.0"/>
			<MiningField name="x705" importance="8.0"/>
			<MiningField name="x729" importance="121.0"/>
			<MiningField name="x734" importance="13.0"/>
			<MiningField name="x735" importance="10.0"/>
			<MiningField name="x757" importance="25.0"/>
			<MiningField name="x762" importance="1.0"/>
			<MiningField name="x766" importance="1.0"/>
			<MiningField name="x767" importance="5.0"/>
			<MiningField name="x768" importance="2.0"/>
			<MiningField name="x769" importance="1.0"/>
			<MiningField name="x770" importance="3.0"/>
			<MiningField name="x791" importance="3.0"/>
			<MiningField name="x792" importance="3.0"/>
			<MiningField name="x793" importance="26.0"/>
			<MiningField name="x797" importance="5.0"/>
			<MiningField name="x798" importance="12.0"/>
			<MiningField name="x799" importance="17.0"/>
			<MiningField name="x826" importance="1.0"/>
			<MiningField name="x827" importance="2.0"/>
			<MiningField name="x830" importance="3.0"/>
			<MiningField name="x831" importance="3.0"/>
			<MiningField name="x833" importance="3.0"/>
			<MiningField name="x855" importance="33.0"/>
			<MiningField name="x861" importance="45.0"/>
			<MiningField name="x862" importance="2.0"/>
			<MiningField name="x883" importance="10.0"/>
			<MiningField name="x885" importance="2.0"/>
			<MiningField name="x887" importance="3.0"/>
			<MiningField name="x890" importance="17.0"/>
			<MiningField name="x891" importance="1.0"/>
			<MiningField name="x894" importance="26.0"/>
			<MiningField name="x895" importance="1.0"/>
			<MiningField name="x896" importance="1.0"/>
			<MiningField name="x918" importance="10.0"/>
			<MiningField name="x919" importance="10.0"/>
			<MiningField name="x920" importance="15.0"/>
			<MiningField name="x924" importance="49.0"/>
			<MiningField name="x925" importance="30.0"/>
			<MiningField name="x926" importance="1.0"/>
			<MiningField name="x946" importance="1.0"/>
			<MiningField name="x948" importance="51.0"/>
			<MiningField name="x950" importance="9.0"/>
			<MiningField name="x951" importance="7.0"/>
			<MiningField name="x952" importance="5.0"/>
			<MiningField name="x953" importance="10.0"/>
			<MiningField name="x955" importance="4.0"/>
			<MiningField name="x956" importance="4.0"/>
			<MiningField name="x957" importance="2.0"/>
			<MiningField name="x958" importance="1.0"/>
			<MiningField name="x960" importance="3.0"/>
			<MiningField name="x965" importance="5.0"/>
			<MiningField name="x981" importance="29.0"/>
			<MiningField name="x986" importance="4.0"/>
			<MiningField name="x987" importance="7.0"/>
			<MiningField name="x988" importance="4.0"/>
			<MiningField name="x1001" importance="10.0"/>
			<MiningField name="x1003" importance="1.0"/>
			<MiningField name="x1009" importance="11.0"/>
			<MiningField name="x1011" importance="23.0"/>
			<MiningField name="x1012" importance="1.0"/>
			<MiningField name="x1014" importance="2.0"/>
			<MiningField name="x1015" importance="1.0"/>
			<MiningField name="x1016" importance="2.0"/>
			<MiningField name="x1020" importance="11.0"/>
			<MiningField name="x1021" importance="5.0"/>
			<MiningField name="x1044" importance="26.0"/>
			<MiningField name="x1045" importance="3.0"/>
			<MiningField name="x1047" importance="1.0"/>
			<MiningField name="x1049" importance="18.0"/>
			<MiningField name="x1050" importance="14.0"/>
			<MiningField name="x1051" importance="43.0"/>
			<MiningField name="x1072" importance="19.0"/>
			<MiningField name="x1074" importance="15.0"/>
			<MiningField name="x1077" importance="6.0"/>
			<MiningField name="x1078" importance="12.0"/>
			<MiningField name="x1079" importance="10.0"/>
			<MiningField name="x1082" importance="1.0"/>
			<MiningField name="x1083" importance="6.0"/>
			<MiningField name="x1107" importance="28.0"/>
			<MiningField name="x1108" importance="5.0"/>
			<MiningField name="x1109" importance="1.0"/>
			<MiningField name="x1111" importance="5.0"/>
			<MiningField name="x1112" importance="46.0"/>
			<MiningField name="x1113" importance="23.0"/>
			<MiningField name="x1114" importance="19.0"/>
			<MiningField name="x1135" importance="15.0"/>
			<MiningField name="x1137" importance="36.0"/>
			<MiningField name="x1141" importance="2.0"/>
			<MiningField name="x1142" importance="2.0"/>
			<MiningField name="x1145" importance="2.0"/>
			<MiningField name="x1146" importance="48.0"/>
			<MiningField name="x1147" importance="1.0"/>
			<MiningField name="x1170" importance="34.0"/>
			<MiningField name="x1171" importance="33.0"/>
			<MiningField name="x1172" importance="1.0"/>
			<MiningField name="x1175" importance="8.0"/>
			<MiningField name="x1176" importance="21.0"/>
			<MiningField name="x1177" importance="11.0"/>
			<MiningField name="x1198" importance="23.0"/>
			<MiningField name="x1200" importance="139.0"/>
			<MiningField name="x1201" importance="3.0"/>
			<MiningField name="x1202" importance="3.0"/>
			<MiningField name="x1204" importance="4.0"/>
			<MiningField name="x1205" importance="1.0"/>
			<MiningField name="x1209" importance="18.0"/>
			<MiningField name="x1210" importance="102.0"/>
			<MiningField name="x1231" importance="1.0"/>
			<MiningField name="x1233" importance="104.0"/>
			<MiningField name="x1234" importance="2.0"/>
			<MiningField name="x1238" importance="7.0"/>
			<MiningField name="x1239" importance="58.0"/>
			<MiningField name="x1240" importance="65.0"/>
		</MiningSchema>
		<Segmentation multipleModelMethod="modelChain" missingPredictionTreatment="returnMissing">
			<Segment id="1">
				<True/>
				<MiningModel functionName="regression">
					<MiningSchema>
						<MiningField name="x1"/>
						<MiningField name="x3"/>
						<MiningField name="x5"/>
						<MiningField name="x6"/>
						<MiningField name="x7"/>
						<MiningField name="x8"/>
						<MiningField name="x9"/>
						<MiningField name="x12"/>
						<MiningField name="x13"/>
						<MiningField name="x34"/>
						<MiningField name="x36"/>
						<MiningField name="x37"/>
						<MiningField name="x39"/>
						<MiningField name="x42"/>
						<MiningField name="x43"/>
						<MiningField name="x53"/>
						<MiningField name="x64"/>
						<MiningField name="x66"/>
						<MiningField name="x69"/>
						<MiningField name="x70"/>
						<MiningField name="x71"/>
						<MiningField name="x73"/>
						<MiningField name="x74"/>
						<MiningField name="x75"/>
						<MiningField name="x99"/>
						<MiningField name="x100"/>
						<MiningField name="x105"/>
						<MiningField name="x125"/>
						<MiningField name="x127"/>
						<MiningField name="x129"/>
						<MiningField name="x132"/>
						<MiningField name="x133"/>
						<MiningField name="x138"/>
						<MiningField name="x139"/>
						<MiningField name="x161"/>
						<MiningField name="x162"/>
						<MiningField name="x163"/>
						<MiningField name="x164"/>
						<MiningField name="x165"/>
						<MiningField name="x167"/>
						<MiningField name="x168"/>
						<MiningField name="x169"/>
						<MiningField name="x189"/>
						<MiningField name="x190"/>
						<MiningField name="x197"/>
						<MiningField name="x199"/>
						<MiningField name="x200"/>
						<MiningField name="x225"/>
						<MiningField name="x226"/>
						<MiningField name="x229"/>
						<MiningField name="x230"/>
						<MiningField name="x231"/>
						<MiningField name="x232"/>
						<MiningField name="x253"/>
						<MiningField name="x255"/>
						<MiningField name="x258"/>
						<MiningField name="x264"/>
						<MiningField name="x288"/>
						<MiningField name="x289"/>
						<MiningField name="x292"/>
						<MiningField name="x293"/>
						<MiningField name="x294"/>
						<MiningField name="x295"/>
						<MiningField name="x318"/>
						<MiningField name="x321"/>
						<MiningField name="x322"/>
						<MiningField name="x323"/>
						<MiningField name="x326"/>
						<MiningField name="x351"/>
						<MiningField name="x352"/>
						<MiningField name="x356"/>
						<MiningField name="x357"/>
						<MiningField name="x358"/>
						<MiningField name="x369"/>
						<MiningField name="x381"/>
						<MiningField name="x384"/>
						<MiningField name="x385"/>
						<MiningField name="x386"/>
						<MiningField name="x388"/>
						<MiningField name="x389"/>
						<MiningField name="x390"/>
						<MiningField name="x391"/>
						<MiningField name="x392"/>
						<MiningField name="x414"/>
						<MiningField name="x415"/>
						<MiningField name="x418"/>
						<MiningField name="x420"/>
						<MiningField name="x421"/>
						<MiningField name="x442"/>
						<MiningField name="x446"/>
						<MiningField name="x448"/>
						<MiningField name="x449"/>
						<MiningField name="x453"/>
						<MiningField name="x456"/>
						<MiningField name="x461"/>
						<MiningField name="x477"/>
						<MiningField name="x479"/>
						<MiningField name="x482"/>
						<MiningField name="x483"/>
						<MiningField name="x484"/>
						<MiningField name="x505"/>
						<MiningField name="x507"/>
						<MiningField name="x508"/>
						<MiningField name="x511"/>
						<MiningField name="x515"/>
						<MiningField name="x516"/>
						<MiningField name="x540"/>
						<MiningField name="x541"/>
						<MiningField name="x543"/>
						<MiningField name="x545"/>
						<MiningField name="x546"/>
						<MiningField name="x547"/>
						<MiningField name="x568"/>
						<MiningField name="x570"/>
						<MiningField name="x573"/>
						<MiningField name="x574"/>
						<MiningField name="x575"/>
						<MiningField name="x578"/>
						<MiningField name="x579"/>
						<MiningField name="x603"/>
						<MiningField name="x604"/>
						<MiningField name="x608"/>
						<MiningField name="x609"/>
						<MiningField name="x626"/>
						<MiningField name="x631"/>
						<MiningField name="x637"/>
						<MiningField name="x638"/>
						<MiningField name="x642"/>
						<MiningField name="x652"/>
						<MiningField name="x666"/>
						<MiningField name="x672"/>
						<MiningField name="x673"/>
						<MiningField name="x692"/>
						<MiningField name="x694"/>
						<MiningField name="x696"/>
						<MiningField name="x699"/>
						<MiningField name="x700"/>
						<MiningField name="x703"/>
						<MiningField name="x704"/>
						<MiningField name="x705"/>
						<MiningField name="x729"/>
						<MiningField name="x734"/>
						<MiningField name="x735"/>
						<MiningField name="x757"/>
						<MiningField name="x762"/>
						<MiningField name="x766"/>
						<MiningField name="x767"/>
						<MiningField name="x768"/>
						<MiningField name="x769"/>
						<MiningField name="x770"/>
						<MiningField name="x791"/>
						<MiningField name="x792"/>
						<MiningField name="x793"/>
						<MiningField name="x797"/>
						<MiningField name="x798"/>
						<MiningField name="x799"/>
						<MiningField name="x826"/>
						<MiningField name="x827"/>
						<MiningField name="x830"/>
						<MiningField name="x831"/>
						<MiningField name="x833"/>
						<MiningField name="x855"/>
						<MiningField name="x861"/>
						<MiningField name="x862"/>
						<MiningField name="x883"/>
						<MiningField name="x885"/>
						<MiningField name="x887"/>
						<MiningField name="x890"/>
						<MiningField name="x891"/>
						<MiningField name="x894"/>
						<MiningField name="x895"/>
						<MiningField name="x896"/>
						<MiningField name="x918"/>
						<MiningField name="x919"/>
						<MiningField name="x920"/>
						<MiningField name="x924"/>
						<MiningField name="x925"/>
						<MiningField name="x926"/>
						<MiningField name="x946"/>
						<MiningField name="x948"/>
						<MiningField name="x950"/>
						<MiningField name="x951"/>
						<MiningField name="x952"/>
						<MiningField name="x953"/>
						<MiningField name="x955"/>
						<MiningField name="x956"/>
						<MiningField name="x957"/>
						<MiningField name="x958"/>
						<MiningField name="x960"/>
						<MiningField name="x965"/>
						<MiningField name="x981"/>
						<MiningField name="x986"/>
						<MiningField name="x987"/>
						<MiningField name="x988"/>
						<MiningField name="x1001"/>
						<MiningField name="x1003"/>
						<MiningField name="x1009"/>
						<MiningField name="x1011"/>
						<MiningField name="x1012"/>
						<MiningField name="x1014"/>
						<MiningField name="x1015"/>
						<MiningField name="x1016"/>
						<MiningField name="x1020"/>
						<MiningField name="x1021"/>
						<MiningField name="x1044"/>
						<MiningField name="x1045"/>
						<MiningField name="x1047"/>
						<MiningField name="x1049"/>
						<MiningField name="x1050"/>
						<MiningField name="x1051"/>
						<MiningField name="x1072"/>
						<MiningField name="x1074"/>
						<MiningField name="x1077"/>
						<MiningField name="x1078"/>
						<MiningField name="x1079"/>
						<MiningField name="x1082"/>
						<MiningField name="x1083"/>
						<MiningField name="x1107"/>
						<MiningField name="x1108"/>
						<MiningField name="x1109"/>
						<MiningField name="x1111"/>
						<MiningField name="x1112"/>
						<MiningField name="x1113"/>
						<MiningField name="x1114"/>
						<MiningField name="x1135"/>
						<MiningField name="x1137"/>
						<MiningField name="x1141"/>
						<MiningField name="x1142"/>
						<MiningField name="x1145"/>
						<MiningField name="x1146"/>
						<MiningField name="x1147"/>
						<MiningField name="x1170"/>
						<MiningField name="x1171"/>
						<MiningField name="x1172"/>
						<MiningField name="x1175"/>
						<MiningField name="x1176"/>
						<MiningField name="x1177"/>
						<MiningField name="x1198"/>
						<MiningField name="x1200"/>
						<MiningField name="x1201"/>
						<MiningField name="x1202"/>
						<MiningField name="x1204"/>
						<MiningField name="x1205"/>
						<MiningField name="x1209"/>
						<MiningField name="x1210"/>
						<MiningField name="x1231"/>
						<MiningField name="x1233"/>
						<MiningField name="x1234"/>
						<MiningField name="x1238"/>
						<MiningField name="x1239"/>
						<MiningField name="x1240"/>
					</MiningSchema>
					<Output>
						<OutputField name="lgbmValue" optype="continuous" dataType="double" isFinalResult="false"/>
					</Output>
					<Segmentation multipleModelMethod="sum">
						<Segment id="1">
							<True/>
							<TreeModel functionName="regression" noTrueChildStrategy="returnLastPrediction">
								<MiningSchema>
									<MiningField name="x36"/>
									<MiningField name="x42"/>
									<MiningField name="x66"/>
									<MiningField name="x70"/>
									<MiningField name="x162"/>
									<MiningField name="x225"/>
									<MiningField name="x294"/>
									<MiningField name="x295"/>
									<MiningField name="x388"/>
									<MiningField name="x603"/>
									<MiningField name="x729"/>
									<MiningField name="x799"/>
									<MiningField name="x948"/>
									<MiningField name="x981"/>
									<MiningField name="x1112"/>
									<MiningField name="x1146"/>
									<MiningField name="x1171"/>
									<MiningField name="x1200"/>
									<MiningField name="x1210"/>
									<MiningField name="x1233"/>
									<MiningField name="x1239"/>
									<MiningField name="x1240"/>
								</MiningSchema>
								<Node score="-0.0929775353891948">
									<True/>
									<Node score="-0.10784991211994092">
										<SimplePredicate field="x948" operator="greaterThan" value="-1.4999999999999998"/>
										<Node score="-0.12355337265950926">
											<SimplePredicate field="x1210" operator="greaterThan" value="399.00000000000006"/>
											<Node score="-0.10717513080364847">
												<SimplePredicate field="x162" operator="greaterThan" value="26.500000000000004"/>
											</Node>
											<Node score="-0.11336921663311274">
												<SimplePredicate field="x729" operator="greaterThan" value="25.500000000000004"/>
											</Node>
											<Node score="-0.12385209059044919">
												<SimplePredicate field="x1112" operator="greaterThan" value="-1159.4999999999998"/>
											</Node>
											<Node score="-0.0947496990494989">
												<SimplePredicate field="x1171" operator="greaterThan" value="724.5000000000001"/>
											</Node>
										</Node>
										<Node score="-0.11813616021573436">
											<SimplePredicate field="x1200" operator="greaterThan" value="82.50000000000001"/>
											<Node score="-0.10205827237828474">
												<SimplePredicate field="x388" operator="greaterThan" value="1.0000000180025095E-35"/>
											</Node>
										</Node>
										<Node score="-0.10178426591163565">
											<SimplePredicate field="x1239" operator="greaterThan" value="36.50000000000001"/>
											<Node score="-0.10859037343261886">
												<SimplePredicate field="x603" operator="greaterThan" value="15.000000000000002"/>
												<Node score="-0.12117755944507813">
													<SimplePredicate field="x66" operator="greaterThan" value="68.50000000000001"/>
												</Node>
											</Node>
										</Node>
										<Node score="-0.10957452213284657">
											<SimplePredicate field="x1240" operator="greaterThan" value="344.50000000000006"/>
										</Node>
										<Node score="-0.11318136658783007">
											<SimplePredicate field="x799" operator="greaterThan" value="216.50000000000003"/>
											<Node score="-0.11912623595058595">
												<SimplePredicate field="x70" operator="greaterThan" value="530.5000000000001"/>
											</Node>
										</Node>
									</Node>
									<Node score="-0.10015733854481454">
										<SimplePredicate field="x1239" operator="greaterThan" value="49.50000000000001"/>
										<Node score="-0.10717884728373446">
											<SimplePredicate field="x225" operator="greaterThan" value="42.50000000000001"/>
											<Node score="-0.08806313196146077">
												<SimplePredicate field="x42" operator="greaterThan" value="140.50000000000003"/>
											</Node>
										</Node>
										<Node score="-0.10547343871899399">
											<SimplePredicate field="x1240" operator="greaterThan" value="280.50000000000006"/>
											<Node score="-0.10258253478120069">
												<SimplePredicate field="x729" operator="greaterThan" value="42.50000000000001"/>
											</Node>
											<Node score="-0.08989474647547999">
												<SimplePredicate field="x1146" operator="greaterThan" value="63.50000000000001"/>
												<Node score="-0.10234291930201676">
													<SimplePredicate field="x1233" operator="greaterThan" value="42.50000000000001"/>
												</Node>
											</Node>
										</Node>
									</Node>
									<Node score="-0.09387429890148276">
										<SimplePredicate field="x1200" operator="greaterThan" value="-146.49999999999997"/>
										<Node score="-0.10849739196287188">
											<SimplePredicate field="x729" operator="greaterThan" value="40.50000000000001"/>
											<Node score="-0.11658403423271342">
												<SimplePredicate field="x225" operator="greaterThan" value="40.50000000000001"/>
												<Node score="-0.11059464475575037">
													<SimplePredicate field="x295" operator="greaterThan" value="333.50000000000006"/>
												</Node>
											</Node>
										</Node>
										<Node score="-0.08914744013789938">
											<SimplePredicate field="x36" operator="greaterThan" value="3.5000000000000004"/>
											<Node score="-0.0908785286301084">
												<SimplePredicate field="x294" operator="greaterThan" value="94.50000000000001"/>
											</Node>
											<Node score="-0.10466426404210714">
												<SimplePredicate field="x1112" operator="greaterThan" value="1.0000000180025095E-35"/>
												<Node score="-0.10871074944081882">
													<SimplePredicate field="x225" operator="greaterThan" value="42.50000000000001"/>
												</Node>
											</Node>
										</Node>
										<Node score="-0.10726922891646389">
											<SimplePredicate field="x981" operator="greaterThan" value="36.50000000000001"/>
										</Node>
									</Node>
								</Node>
							</TreeModel>
						</Segment>
						<Segment id="2">
							<True/>
							<TreeModel functionName="regression" noTrueChildStrategy="returnLastPrediction">
								<MiningSchema>
									<MiningField name="x42"/>
									<MiningField name="x66"/>
									<MiningField name="x162"/>
									<MiningField name="x200"/>
									<MiningField name="x225"/>
									<MiningField name="x253"/>
									<MiningField name="x292"/>
									<MiningField name="x388"/>
									<MiningField name="x603"/>
									<MiningField name="x729"/>
									<MiningField name="x799"/>
									<MiningField name="x861"/>
									<MiningField name="x948"/>
									<MiningField name="x1020"/>
									<MiningField name="x1049"/>
									<MiningField name="x1112"/>
									<MiningField name="x1171"/>
									<MiningField name="x1200"/>
									<MiningField name="x1210"/>
									<MiningField name="x1233"/>
									<MiningField name="x1238"/>
									<MiningField name="x1239"/>
									<MiningField name="x1240"/>
								</MiningSchema>
								<Node score="0.016239743050549052">
									<True/>
									<Node score="0.001353491719142884">
										<SimplePredicate field="x948" operator="greaterThan" value="-1.4999999999999998"/>
										<Node score="-0.01420472383931956">
											<SimplePredicate field="x1210" operator="greaterThan" value="399.00000000000006"/>
											<Node score="0.00202140201472606">
												<SimplePredicate field="x162" operator="greaterThan" value="26.500000000000004"/>
											</Node>
											<Node score="-0.004111472185085101">
												<SimplePredicate field="x729" operator="greaterThan" value="25.500000000000004"/>
											</Node>
											<Node score="-0.014500970990805726">
												<SimplePredicate field="x1112" operator="greaterThan" value="-1159.4999999999998"/>
											</Node>
											<Node score="0.014312195973249406">
												<SimplePredicate field="x1171" operator="greaterThan" value="724.5000000000001"/>
											</Node>
										</Node>
										<Node score="-0.008834287029716783">
											<SimplePredicate field="x1200" operator="greaterThan" value="82.50000000000001"/>
											<Node score="0.007084625559721095">
												<SimplePredicate field="x388" operator="greaterThan" value="1.0000000180025095E-35"/>
											</Node>
										</Node>
										<Node score="0.007355685863182308">
											<SimplePredicate field="x1239" operator="greaterThan" value="36.50000000000001"/>
											<Node score="6.205148715047794E-4">
												<SimplePredicate field="x603" operator="greaterThan" value="15.000000000000002"/>
												<Node score="-0.011848969779145565">
													<SimplePredicate field="x66" operator="greaterThan" value="68.50000000000001"/>
												</Node>
											</Node>
										</Node>
										<Node score="-3.5377763900888595E-4">
											<SimplePredicate field="x1240" operator="greaterThan" value="344.50000000000006"/>
										</Node>
										<Node score="-0.006488104077683029">
											<SimplePredicate field="x799" operator="greaterThan" value="216.50000000000003"/>
										</Node>
									</Node>
									<Node score="0.006588713076445395">
										<SimplePredicate field="x1239" operator="greaterThan" value="44.50000000000001"/>
										<Node score="0.002161808910538142">
											<SimplePredicate field="x225" operator="greaterThan" value="42.50000000000001"/>
											<Node score="0.01937718354275809">
												<SimplePredicate field="x42" operator="greaterThan" value="122.50000000000001"/>
											</Node>
										</Node>
										<Node score="0.0030817523093580545">
											<SimplePredicate field="x1240" operator="greaterThan" value="288.50000000000006"/>
											<Node score="0.005792063440614927">
												<SimplePredicate field="x1233" operator="greaterThan" value="42.50000000000001"/>
											</Node>
											<Node score="0.018974401035444878">
												<SimplePredicate field="x1020" operator="greaterThan" value="50.50000000000001"/>
												<Node score="0.008283870253181032">
													<SimplePredicate field="x729" operator="greaterThan" value="42.50000000000001"/>
												</Node>
											</Node>
										</Node>
										<Node score="0.014768267435148029">
											<SimplePredicate field="x253" operator="greaterThan" value="199.50000000000003"/>
										</Node>
									</Node>
									<Node score="0.018830737187376247">
										<SimplePredicate field="x1200" operator="greaterThan" value="-146.49999999999997"/>
										<Node score="4.3640197643642303E-4">
											<SimplePredicate field="x225" operator="greaterThan" value="40.50000000000001"/>
											<Node score="-0.0044284771593377775">
												<SimplePredicate field="x729" operator="greaterThan" value="40.50000000000001"/>
											</Node>
										</Node>
										<Node score="0.015413378330624401">
											<SimplePredicate field="x1238" operator="greaterThan" value="1.0000000180025095E-35"/>
											<Node score="-2.1756253811830656E-4">
												<SimplePredicate field="x1233" operator="greaterThan" value="39.50000000000001"/>
												<Node score="0.01771684791179435">
													<SimplePredicate field="x861" operator="greaterThan" value="101.50000000000001"/>
												</Node>
											</Node>
											<Node score="0.0169675173414828">
												<SimplePredicate field="x292" operator="greaterThan" value="18.500000000000004"/>
											</Node>
											<Node score="0.0031242242001947814">
												<SimplePredicate field="x1049" operator="greaterThan" value="2.5000000000000004"/>
												<Node score="0.01015426621170352">
													<SimplePredicate field="x200" operator="greaterThan" value="33.50000000000001"/>
												</Node>
											</Node>
										</Node>
									</Node>
								</Node>
							</TreeModel>
						</Segment>
						<Segment id="3">
							<True/>
							<TreeModel functionName="regression" noTrueChildStrategy="returnLastPrediction">
								<MiningSchema>
									<MiningField name="x36"/>
									<MiningField name="x42"/>
									<MiningField name="x66"/>
									<MiningField name="x162"/>
									<MiningField name="x225"/>
									<MiningField name="x357"/>
									<MiningField name="x388"/>
									<MiningField name="x579"/>
									<MiningField name="x603"/>
									<MiningField name="x729"/>
									<MiningField name="x799"/>
									<MiningField name="x855"/>
									<MiningField name="x948"/>
									<MiningField name="x981"/>
									<MiningField name="x1079"/>
									<MiningField name="x1112"/>
									<MiningField name="x1137"/>
									<MiningField name="x1146"/>
									<MiningField name="x1171"/>
									<MiningField name="x1200"/>
									<MiningField name="x1210"/>
									<MiningField name="x1233"/>
									<MiningField name="x1239"/>
									<MiningField name="x1240"/>
								</MiningSchema>
								<Node score="0.015894285324861042">
									<True/>
									<Node score="-3.9425557608306226E-4">
										<SimplePredicate field="x948" operator="greaterThan" value="-1.4999999999999998"/>
										<Node score="-0.014075777546269685">
											<SimplePredicate field="x1210" operator="greaterThan" value="399.00000000000006"/>
											<Node score="0.0020009730221149245">
												<SimplePredicate field="x162" operator="greaterThan" value="26.500000000000004"/>
											</Node>
											<Node score="-6.530214494148233E-4">
												<SimplePredicate field="x855" operator="greaterThan" value="26.500000000000004"/>
											</Node>
											<Node score="-0.014286078349660725">
												<SimplePredicate field="x1112" operator="greaterThan" value="-1159.4999999999998"/>
											</Node>
											<Node score="0.014160156111241556">
												<SimplePredicate field="x1171" operator="greaterThan" value="724.5000000000001"/>
											</Node>
										</Node>
										<Node score="-0.008750697980954498">
											<SimplePredicate field="x1200" operator="greaterThan" value="82.50000000000001"/>
											<Node score="0.007011321264505084">
												<SimplePredicate field="x388" operator="greaterThan" value="1.0000000180025095E-35"/>
											</Node>
										</Node>
										<Node score="0.007279490286029839">
											<SimplePredicate field="x1239" operator="greaterThan" value="36.50000000000001"/>
											<Node score="6.142890142952393E-4">
												<SimplePredicate field="x603" operator="greaterThan" value="15.000000000000002"/>
												<Node score="-0.011739347887576143">
													<SimplePredicate field="x66" operator="greaterThan" value="68.50000000000001"/>
												</Node>
											</Node>
										</Node>
										<Node score="0.0012723379182075995">
											<SimplePredicate field="x579" operator="greaterThan" value="43.50000000000001"/>
											<Node score="-0.006449193821127648">
												<SimplePredicate field="x799" operator="greaterThan" value="216.50000000000003"/>
											</Node>
										</Node>
									</Node>
									<Node score="0.008872362922730198">
										<SimplePredicate field="x1239" operator="greaterThan" value="49.50000000000001"/>
										<Node score="0.001994341252108301">
											<SimplePredicate field="x225" operator="greaterThan" value="42.50000000000001"/>
											<Node score="0.020710998646332936">
												<SimplePredicate field="x42" operator="greaterThan" value="140.50000000000003"/>
											</Node>
										</Node>
										<Node score="0.003632917802988012">
											<SimplePredicate field="x1240" operator="greaterThan" value="280.50000000000006"/>
											<Node score="0.006490696650092605">
												<SimplePredicate field="x729" operator="greaterThan" value="42.50000000000001"/>
											</Node>
											<Node score="0.018908770480414644">
												<SimplePredicate field="x1146" operator="greaterThan" value="63.50000000000001"/>
												<Node score="0.006739884247437979">
													<SimplePredicate field="x1233" operator="greaterThan" value="42.50000000000001"/>
												</Node>
											</Node>
										</Node>
									</Node>
									<Node score="0.015049018327925321">
										<SimplePredicate field="x1200" operator="greaterThan" value="-146.49999999999997"/>
										<Node score="6.806371456273914E-4">
											<SimplePredicate field="x729" operator="greaterThan" value="40.50000000000001"/>
											<Node score="-0.00428884286859278">
												<SimplePredicate field="x225" operator="greaterThan" value="40.50000000000001"/>
											</Node>
										</Node>
										<Node score="0.019655092442903012">
											<SimplePredicate field="x36" operator="greaterThan" value="3.5000000000000004"/>
											<Node score="0.018014139420497035">
												<SimplePredicate field="x357" operator="greaterThan" value="94.50000000000001"/>
											</Node>
											<Node score="0.01355136569529133">
												<SimplePredicate field="x1112" operator="greaterThan" value="1.0000000180025095E-35"/>
												<Node score="8.1079328633432E-5">
													<SimplePredicate field="x1137" operator="greaterThan" value="-28.499999999999996"/>
												</Node>
												<Node score="0.014644058832856249">
													<SimplePredicate field="x1240" operator="greaterThan" value="387.50000000000006"/>
												</Node>
												<Node score="0.002335586379160867">
													<SimplePredicate field="x1079" operator="greaterThan" value="409.00000000000006"/>
												</Node>
											</Node>
										</Node>
										<Node score="0.0018898851423186458">
											<SimplePredicate field="x981" operator="greaterThan" value="36.50000000000001"/>
										</Node>
									</Node>
								</Node>
							</TreeModel>
						</Segment>
						<Segment id="4">
							<True/>
							<TreeModel functionName="regression" noTrueChildStrategy="returnLastPrediction">
								<MiningSchema>
									<MiningField name="x42"/>
									<MiningField name="x70"/>
									<MiningField name="x162"/>
									<MiningField name="x225"/>
									<MiningField name="x253"/>
									<MiningField name="x255"/>
									<MiningField name="x388"/>
									<MiningField name="x546"/>
									<MiningField name="x603"/>
									<MiningField name="x729"/>
									<MiningField name="x799"/>
									<MiningField name="x948"/>
									<MiningField name="x1020"/>
									<MiningField name="x1044"/>
									<MiningField name="x1049"/>
									<MiningField name="x1112"/>
									<MiningField name="x1171"/>
									<MiningField name="x1200"/>
									<MiningField name="x1210"/>
									<MiningField name="x1233"/>
									<MiningField name="x1239"/>
									<MiningField name="x1240"/>
								</MiningSchema>
								<Node score="0.015898541345178024">
									<True/>
									<Node score="0.0013271034060305018">
										<SimplePredicate field="x948" operator="greaterThan" value="-1.4999999999999998"/>
										<Node score="-0.013949273302371487">
											<SimplePredicate field="x1210" operator="greaterThan" value="399.00000000000006"/>
											<Node score="0.0019807559392540984">
												<SimplePredicate field="x162" operator="greaterThan" value="26.500000000000004"/>
											</Node>
											<Node score="-0.003972948580716624">
												<SimplePredicate field="x729" operator="greaterThan" value="25.500000000000004"/>
											</Node>
											<Node score="-0.01424265177642947">
												<SimplePredicate field="x1112" operator="greaterThan" value="-1159.4999999999998"/>
											</Node>
											<Node score="0.014011240658268892">
												<SimplePredicate field="x1171" operator="greaterThan" value="724.5000000000001"/>
											</Node>
										</Node>
										<Node score="-0.008668188406027488">
											<SimplePredicate field="x1200" operator="greaterThan" value="82.50000000000001"/>
											<Node score="0.006938973110042605">
												<SimplePredicate field="x388" operator="greaterThan" value="1.0000000180025095E-35"/>
											</Node>
										</Node>
										<Node score="0.0072043045593971865">
											<SimplePredicate field="x1239" operator="greaterThan" value="36.50000000000001"/>
											<Node score="7.383763257927239E-4">
												<SimplePredicate field="x603" operator="greaterThan" value="15.000000000000002"/>
												<Node score="-0.010058834618369504">
													<SimplePredicate field="x255" operator="greaterThan" value="64.50000000000001"/>
												</Node>
											</Node>
										</Node>
										<Node score="-3.3577738743797764E-4">
											<SimplePredicate field="x1240" operator="greaterThan" value="344.50000000000006"/>
										</Node>
										<Node score="-0.0038067417990950182">
											<SimplePredicate field="x799" operator="greaterThan" value="216.50000000000003"/>
											<Node score="-0.009699591947922626">
												<SimplePredicate field="x70" operator="greaterThan" value="530.5000000000001"/>
											</Node>
										</Node>
									</Node>
									<Node score="0.006432120062995107">
										<SimplePredicate field="x1239" operator="greaterThan" value="44.50000000000001"/>
										<Node score="0.0021215692942301305">
											<SimplePredicate field="x225" operator="greaterThan" value="42.50000000000001"/>
											<Node score="0.018975431671898847">
												<SimplePredicate field="x42" operator="greaterThan" value="122.50000000000001"/>
											</Node>
										</Node>
										<Node score="0.002991359892303228">
											<SimplePredicate field="x1240" operator="greaterThan" value="288.50000000000006"/>
											<Node score="0.005675947687545222">
												<SimplePredicate field="x1233" operator="greaterThan" value="42.50000000000001"/>
											</Node>
											<Node score="0.018575340964888876">
												<SimplePredicate field="x1020" operator="greaterThan" value="50.50000000000001"/>
												<Node score="0.008133514697719285">
													<SimplePredicate field="x729" operator="greaterThan" value="42.50000000000001"/>
												</Node>
											</Node>
										</Node>
										<Node score="0.014506058210829403">
											<SimplePredicate field="x253" operator="greaterThan" value="199.50000000000003"/>
										</Node>
									</Node>
									<Node score="0.016207479382857017">
										<SimplePredicate field="x1200" operator="greaterThan" value="-146.49999999999997"/>
										<Node score="4.0337492048967647E-4">
											<SimplePredicate field="x225" operator="greaterThan" value="40.50000000000001"/>
											<Node score="-0.004343555619398728">
												<SimplePredicate field="x729" operator="greaterThan" value="40.50000000000001"/>
											</Node>
										</Node>
										<Node score="0.004382823940574819">
											<SimplePredicate field="x1044" operator="greaterThan" value="4.500000000000001"/>
											<Node score="0.017007190794800797">
												<SimplePredicate field="x546" operator="greaterThan" value="101.50000000000001"/>
											</Node>
											<Node score="-2.384061238439628E-4">
												<SimplePredicate field="x1233" operator="greaterThan" value="38.50000000000001"/>
											</Node>
										</Node>
										<Node score="0.002283360452667074">
											<SimplePredicate field="x1049" operator="greaterThan" value="46.50000000000001"/>
										</Node>
										<Node score="0.0029698731773239533">
											<SimplePredicate field="x1233" operator="greaterThan" value="41.50000000000001"/>
										</Node>
									</Node>
								</Node>
							</TreeModel>
						</Segment>
						<Segment id="5">
							<True/>
							<TreeModel functionName="regression" noTrueChildStrategy="returnLastPrediction">
								<MiningSchema>
									<MiningField name="x42"/>
									<MiningField name="x66"/>
									<MiningField name="x162"/>
									<MiningField name="x225"/>
									<MiningField name="x253"/>
									<MiningField name="x294"/>
									<MiningField name="x388"/>
									<MiningField name="x484"/>
									<MiningField name="x579"/>
									<MiningField name="x603"/>
									<MiningField name="x729"/>
									<MiningField name="x799"/>
									<MiningField name="x855"/>
									<MiningField name="x948"/>
									<MiningField name="x1021"/>
									<MiningField name="x1049"/>
									<MiningField name="x1112"/>
									<MiningField name="x1171"/>
									<MiningField name="x1200"/>
									<MiningField name="x1209"/>
									<MiningField name="x1210"/>
									<MiningField name="x1233"/>
									<MiningField name="x1239"/>
									<MiningField name="x1240"/>
								</MiningSchema>
								<Node score="0.007282318503022986">
									<True/>
									<Node score="-3.7635709975601493E-4">
										<SimplePredicate field="x948" operator="greaterThan" value="-1.4999999999999998"/>
										<Node score="-0.01382512967029749">
											<SimplePredicate field="x1210" operator="greaterThan" value="399.00000000000006"/>
											<Node score="0.0019607492556478904">
												<SimplePredicate field="x162" operator="greaterThan" value="26.500000000000004"/>
											</Node>
											<Node score="-5.607699931119477E-4">
												<SimplePredicate field="x855" operator="greaterThan" value="26.500000000000004"/>
											</Node>
											<Node score="-0.014033512523826635">
												<SimplePredicate field="x1112" operator="greaterThan" value="-1159.4999999999998"/>
											</Node>
											<Node score="0.013865340535550533">
												<SimplePredicate field="x1171" operator="greaterThan" value="724.5000000000001"/>
											</Node>
										</Node>
										<Node score="-0.008586734592220745">
											<SimplePredicate field="x1200" operator="greaterThan" value="82.50000000000001"/>
											<Node score="0.0068675615733254725">
												<SimplePredicate field="x388" operator="greaterThan" value="1.0000000180025095E-35"/>
											</Node>
										</Node>
										<Node score="0.007130105042837184">
											<SimplePredicate field="x1239" operator="greaterThan" value="36.50000000000001"/>
											<Node score="6.04324911701337E-4">
												<SimplePredicate field="x603" operator="greaterThan" value="15.000000000000002"/>
												<Node score="-0.01155525640796656">
													<SimplePredicate field="x66" operator="greaterThan" value="68.50000000000001"/>
												</Node>
											</Node>
										</Node>
										<Node score="0.0012461714054651405">
											<SimplePredicate field="x579" operator="greaterThan" value="43.50000000000001"/>
											<Node score="-0.006331899571667854">
												<SimplePredicate field="x799" operator="greaterThan" value="216.50000000000003"/>
											</Node>
										</Node>
									</Node>
									<Node score="0.006366115579600231">
										<SimplePredicate field="x1239" operator="greaterThan" value="44.50000000000001"/>
										<Node score="0.0021761144309825195">
											<SimplePredicate field="x225" operator="greaterThan" value="42.50000000000001"/>
											<Node score="0.01947368038891522">
												<SimplePredicate field="x42" operator="greaterThan" value="140.50000000000003"/>
											</Node>
										</Node>
										<Node score="8.916254775923295E-4">
											<SimplePredicate field="x1240" operator="greaterThan" value="288.50000000000006"/>
											<Node score="0.005617761558810327">
												<SimplePredicate field="x1233" operator="greaterThan" value="42.50000000000001"/>
											</Node>
											<Node score="0.018342999569421408">
												<SimplePredicate field="x1209" operator="greaterThan" value="51.50000000000001"/>
												<Node score="0.008185062464743346">
													<SimplePredicate field="x729" operator="greaterThan" value="42.50000000000001"/>
												</Node>
											</Node>
										</Node>
										<Node score="0.014353980039079442">
											<SimplePredicate field="x253" operator="greaterThan" value="199.50000000000003"/>
										</Node>
									</Node>
									<Node score="0.015770387355462413">
										<SimplePredicate field="x1200" operator="greaterThan" value="-146.49999999999997"/>
										<Node score="3.99332547322987E-4">
											<SimplePredicate field="x225" operator="greaterThan" value="40.50000000000001"/>
											<Node score="-0.004301286798680791">
												<SimplePredicate field="x729" operator="greaterThan" value="40.50000000000001"/>
											</Node>
										</Node>
										<Node score="0.002854284881169542">
											<SimplePredicate field="x1049" operator="greaterThan" value="1.5000000000000002"/>
											<Node score="2.735065973857795E-4">
												<SimplePredicate field="x729" operator="greaterThan" value="39.50000000000001"/>
											</Node>
											<Node score="0.018050254192587857">
												<SimplePredicate field="x1240" operator="greaterThan" value="387.50000000000006"/>
												<Node score="0.004549664448489847">
													<SimplePredicate field="x1021" operator="greaterThan" value="370.50000000000006"/>
												</Node>
											</Node>
											<Node score="0.01768235895381927">
												<SimplePredicate field="x294" operator="greaterThan" value="89.50000000000001"/>
											</Node>
										</Node>
									</Node>
									<Node score="0.018050459765046094">
										<SimplePredicate field="x484" operator="greaterThan" value="297.50000000000006"/>
									</Node>
								</Node>
							</TreeModel>
						</Segment>
						<Segment id="6">
							<True/>
							<TreeModel functionName="regression" noTrueChildStrategy="returnLastPrediction">
								<MiningSchema>
									<MiningField name="x36"/>
									<MiningField name="x42"/>
									<MiningField name="x43"/>
									<MiningField name="x133"/>
									<MiningField name="x162"/>
									<MiningField name="x225"/>
									<MiningField name="x255"/>
									<MiningField name="x388"/>
									<MiningField name="x546"/>
									<MiningField name="x603"/>
									<MiningField name="x729"/>
									<MiningField name="x948"/>
									<MiningField name="x981"/>
									<MiningField name="x1112"/>
									<MiningField name="x1146"/>
									<MiningField name="x1171"/>
									<MiningField name="x1198"/>
									<MiningField name="x1200"/>
									<MiningField name="x1210"/>
									<MiningField name="x1233"/>
									<MiningField name="x1239"/>
									<MiningField name="x1240"/>
								</MiningSchema>
								<Node score="0.015406186237497921">
									<True/>
									<Node score="-0.0045591998287529715">
										<SimplePredicate field="x948" operator="greaterThan" value="-1.4999999999999998"/>
										<Node score="-0.013703267642494578">
											<SimplePredicate field="x1210" operator="greaterThan" value="399.00000000000006"/>
											<Node score="0.0019409493044368498">
												<SimplePredicate field="x162" operator="greaterThan" value="26.500000000000004"/>
											</Node>
											<Node score="-0.004221370093029366">
												<SimplePredicate field="x1233" operator="greaterThan" value="25.500000000000004"/>
											</Node>
											<Node score="-0.014008006144672775">
												<SimplePredicate field="x1112" operator="greaterThan" value="-1159.4999999999998"/>
											</Node>
											<Node score="0.013722351509295818">
												<SimplePredicate field="x1171" operator="greaterThan" value="724.5000000000001"/>
											</Node>
										</Node>
										<Node score="-0.008506312581478055">
											<SimplePredicate field="x1200" operator="greaterThan" value="82.50000000000001"/>
											<Node score="0.006797065149185001">
												<SimplePredicate field="x388" operator="greaterThan" value="1.0000000180025095E-35"/>
											</Node>
										</Node>
										<Node score="0.007056873155901476">
											<SimplePredicate field="x1239" operator="greaterThan" value="36.50000000000001"/>
											<Node score="7.262798711143387E-4">
												<SimplePredicate field="x603" operator="greaterThan" value="15.000000000000002"/>
												<Node score="-0.009899316133769083">
													<SimplePredicate field="x255" operator="greaterThan" value="64.50000000000001"/>
												</Node>
											</Node>
										</Node>
										<Node score="-3.183112431576113E-4">
											<SimplePredicate field="x1240" operator="greaterThan" value="344.50000000000006"/>
										</Node>
									</Node>
									<Node score="0.00860184273769807">
										<SimplePredicate field="x1239" operator="greaterThan" value="49.50000000000001"/>
										<Node score="0.0019292943659095145">
											<SimplePredicate field="x225" operator="greaterThan" value="42.50000000000001"/>
											<Node score="0.02009571412009476">
												<SimplePredicate field="x42" operator="greaterThan" value="140.50000000000003"/>
											</Node>
										</Node>
										<Node score="0.003453434048167873">
											<SimplePredicate field="x1240" operator="greaterThan" value="280.50000000000006"/>
											<Node score="0.006276930244643663">
												<SimplePredicate field="x729" operator="greaterThan" value="42.50000000000001"/>
											</Node>
											<Node score="0.018332009278015364">
												<SimplePredicate field="x1146" operator="greaterThan" value="63.50000000000001"/>
												<Node score="0.006547983571897306">
													<SimplePredicate field="x1233" operator="greaterThan" value="42.50000000000001"/>
												</Node>
											</Node>
										</Node>
									</Node>
									<Node score="0.01465577861451169">
										<SimplePredicate field="x1200" operator="greaterThan" value="-146.49999999999997"/>
										<Node score="-0.006271626157978495">
											<SimplePredicate field="x729" operator="greaterThan" value="40.50000000000001"/>
											<Node score="0.007469527027782427">
												<SimplePredicate field="x43" operator="greaterThan" value="341.50000000000006"/>
												<Node score="-0.0015882460618637404">
													<SimplePredicate field="x43" operator="greaterThan" value="356.50000000000006"/>
													<Node score="0.01667521194868718">
														<SimplePredicate field="x133" operator="greaterThan" value="877.5000000000001"/>
													</Node>
												</Node>
											</Node>
											<Node score="5.63194011304185E-4">
												<SimplePredicate field="x546" operator="greaterThan" value="37.50000000000001"/>
											</Node>
										</Node>
										<Node score="0.002215808073259018">
											<SimplePredicate field="x36" operator="greaterThan" value="3.5000000000000004"/>
											<Node score="5.292036841716066E-4">
												<SimplePredicate field="x225" operator="greaterThan" value="42.50000000000001"/>
											</Node>
											<Node score="0.013423114799698838">
												<SimplePredicate field="x1198" operator="greaterThan" value="400.50000000000006"/>
											</Node>
											<Node score="0.008209801174780368">
												<SimplePredicate field="x225" operator="greaterThan" value="26.500000000000004"/>
											</Node>
										</Node>
										<Node score="0.001786323551958138">
											<SimplePredicate field="x981" operator="greaterThan" value="36.50000000000001"/>
										</Node>
									</Node>
								</Node>
							</TreeModel>
						</Segment>
						<Segment id="7">
							<True/>
							<TreeModel functionName="regression" noTrueChildStrategy="returnLastPrediction">
								<MiningSchema>
									<MiningField name="x37"/>
									<MiningField name="x42"/>
									<MiningField name="x66"/>
									<MiningField name="x70"/>
									<MiningField name="x162"/>
									<MiningField name="x225"/>
									<MiningField name="x253"/>
									<MiningField name="x388"/>
									<MiningField name="x484"/>
									<MiningField name="x546"/>
									<MiningField name="x603"/>
									<MiningField name="x729"/>
									<MiningField name="x799"/>
									<MiningField name="x948"/>
									<MiningField name="x1044"/>
									<MiningField name="x1049"/>
									<MiningField name="x1051"/>
									<MiningField name="x1107"/>
									<MiningField name="x1112"/>
									<MiningField name="x1171"/>
									<MiningField name="x1200"/>
									<MiningField name="x1209"/>
									<MiningField name="x1210"/>
									<MiningField name="x1233"/>
