<?xml version="1.0" encoding="UTF-8" standalone="yes"?>
<PMML xmlns="http://www.dmg.org/PMML-4_3" xmlns:data="http://jpmml.org/jpmml-model/InlineTable" version="4.3">
	<Header>
		<Application name="JPMML-SkLearn" version="1.6.25"/>
		<Timestamp>2021-07-29T01:42:21Z</Timestamp>
	</Header>
	<DataDictionary>
		<DataField name="y" optype="categorical" dataType="integer">
			<Value value="0"/>
			<Value value="1"/>
		</DataField>
		<DataField name="x1" optype="continuous" dataType="double"/>
		<DataField name="x3" optype="continuous" dataType="double"/>
		<DataField name="x8" optype="continuous" dataType="double"/>
		<DataField name="x12" optype="continuous" dataType="double"/>
		<DataField name="x13" optype="continuous" dataType="double"/>
		<DataField name="x35" optype="continuous" dataType="double"/>
		<DataField name="x36" optype="continuous" dataType="double"/>
		<DataField name="x37" optype="continuous" dataType="double"/>
		<DataField name="x41" optype="continuous" dataType="double"/>
		<DataField name="x42" optype="continuous" dataType="double"/>
		<DataField name="x43" optype="continuous" dataType="double"/>
		<DataField name="x64" optype="continuous" dataType="double"/>
		<DataField name="x66" optype="continuous" dataType="double"/>
		<DataField name="x68" optype="continuous" dataType="double"/>
		<DataField name="x70" optype="continuous" dataType="double"/>
		<DataField name="x71" optype="continuous" dataType="double"/>
		<DataField name="x73" optype="continuous" dataType="double"/>
		<DataField name="x75" optype="continuous" dataType="double"/>
		<DataField name="x99" optype="continuous" dataType="double"/>
		<DataField name="x100" optype="continuous" dataType="double"/>
		<DataField name="x102" optype="continuous" dataType="double"/>
		<DataField name="x104" optype="continuous" dataType="double"/>
		<DataField name="x105" optype="continuous" dataType="double"/>
		<DataField name="x106" optype="continuous" dataType="double"/>
		<DataField name="x119" optype="continuous" dataType="double"/>
		<DataField name="x127" optype="continuous" dataType="double"/>
		<DataField name="x132" optype="continuous" dataType="double"/>
		<DataField name="x133" optype="continuous" dataType="double"/>
		<DataField name="x137" optype="continuous" dataType="double"/>
		<DataField name="x138" optype="continuous" dataType="double"/>
		<DataField name="x139" optype="continuous" dataType="double"/>
		<DataField name="x162" optype="continuous" dataType="double"/>
		<DataField name="x163" optype="continuous" dataType="double"/>
		<DataField name="x164" optype="continuous" dataType="double"/>
		<DataField name="x167" optype="continuous" dataType="double"/>
		<DataField name="x169" optype="continuous" dataType="double"/>
		<DataField name="x190" optype="continuous" dataType="double"/>
		<DataField name="x192" optype="continuous" dataType="double"/>
		<DataField name="x195" optype="continuous" dataType="double"/>
		<DataField name="x196" optype="continuous" dataType="double"/>
		<DataField name="x201" optype="continuous" dataType="double"/>
		<DataField name="x202" optype="continuous" dataType="double"/>
		<DataField name="x225" optype="continuous" dataType="double"/>
		<DataField name="x226" optype="continuous" dataType="double"/>
		<DataField name="x228" optype="continuous" dataType="double"/>
		<DataField name="x229" optype="continuous" dataType="double"/>
		<DataField name="x230" optype="continuous" dataType="double"/>
		<DataField name="x231" optype="continuous" dataType="double"/>
		<DataField name="x232" optype="continuous" dataType="double"/>
		<DataField name="x251" optype="continuous" dataType="double"/>
		<DataField name="x253" optype="continuous" dataType="double"/>
		<DataField name="x255" optype="continuous" dataType="double"/>
		<DataField name="x258" optype="continuous" dataType="double"/>
		<DataField name="x260" optype="continuous" dataType="double"/>
		<DataField name="x261" optype="continuous" dataType="double"/>
		<DataField name="x264" optype="continuous" dataType="double"/>
		<DataField name="x265" optype="continuous" dataType="double"/>
		<DataField name="x287" optype="continuous" dataType="double"/>
		<DataField name="x288" optype="continuous" dataType="double"/>
		<DataField name="x289" optype="continuous" dataType="double"/>
		<DataField name="x293" optype="continuous" dataType="double"/>
		<DataField name="x294" optype="continuous" dataType="double"/>
		<DataField name="x295" optype="continuous" dataType="double"/>
		<DataField name="x316" optype="continuous" dataType="double"/>
		<DataField name="x318" optype="continuous" dataType="double"/>
		<DataField name="x323" optype="continuous" dataType="double"/>
		<DataField name="x325" optype="continuous" dataType="double"/>
		<DataField name="x326" optype="continuous" dataType="double"/>
		<DataField name="x327" optype="continuous" dataType="double"/>
		<DataField name="x328" optype="continuous" dataType="double"/>
		<DataField name="x351" optype="continuous" dataType="double"/>
		<DataField name="x352" optype="continuous" dataType="double"/>
		<DataField name="x355" optype="continuous" dataType="double"/>
		<DataField name="x356" optype="continuous" dataType="double"/>
		<DataField name="x357" optype="continuous" dataType="double"/>
		<DataField name="x358" optype="continuous" dataType="double"/>
		<DataField name="x371" optype="continuous" dataType="double"/>
		<DataField name="x379" optype="continuous" dataType="double"/>
		<DataField name="x381" optype="continuous" dataType="double"/>
		<DataField name="x384" optype="continuous" dataType="double"/>
		<DataField name="x386" optype="continuous" dataType="double"/>
		<DataField name="x389" optype="continuous" dataType="double"/>
		<DataField name="x390" optype="continuous" dataType="double"/>
		<DataField name="x391" optype="continuous" dataType="double"/>
		<DataField name="x398" optype="continuous" dataType="double"/>
		<DataField name="x419" optype="continuous" dataType="double"/>
		<DataField name="x420" optype="continuous" dataType="double"/>
		<DataField name="x421" optype="continuous" dataType="double"/>
		<DataField name="x442" optype="continuous" dataType="double"/>
		<DataField name="x444" optype="continuous" dataType="double"/>
		<DataField name="x446" optype="continuous" dataType="double"/>
		<DataField name="x447" optype="continuous" dataType="double"/>
		<DataField name="x448" optype="continuous" dataType="double"/>
		<DataField name="x449" optype="continuous" dataType="double"/>
		<DataField name="x451" optype="continuous" dataType="double"/>
		<DataField name="x477" optype="continuous" dataType="double"/>
		<DataField name="x478" optype="continuous" dataType="double"/>
		<DataField name="x481" optype="continuous" dataType="double"/>
		<DataField name="x482" optype="continuous" dataType="double"/>
		<DataField name="x483" optype="continuous" dataType="double"/>
		<DataField name="x505" optype="continuous" dataType="double"/>
		<DataField name="x507" optype="continuous" dataType="double"/>
		<DataField name="x509" optype="continuous" dataType="double"/>
		<DataField name="x512" optype="continuous" dataType="double"/>
		<DataField name="x516" optype="continuous" dataType="double"/>
		<DataField name="x539" optype="continuous" dataType="double"/>
		<DataField name="x540" optype="continuous" dataType="double"/>
		<DataField name="x541" optype="continuous" dataType="double"/>
		<DataField name="x545" optype="continuous" dataType="double"/>
		<DataField name="x546" optype="continuous" dataType="double"/>
		<DataField name="x547" optype="continuous" dataType="double"/>
		<DataField name="x568" optype="continuous" dataType="double"/>
		<DataField name="x570" optype="continuous" dataType="double"/>
		<DataField name="x575" optype="continuous" dataType="double"/>
		<DataField name="x577" optype="continuous" dataType="double"/>
		<DataField name="x578" optype="continuous" dataType="double"/>
		<DataField name="x579" optype="continuous" dataType="double"/>
		<DataField name="x603" optype="continuous" dataType="double"/>
		<DataField name="x604" optype="continuous" dataType="double"/>
		<DataField name="x608" optype="continuous" dataType="double"/>
		<DataField name="x609" optype="continuous" dataType="double"/>
		<DataField name="x610" optype="continuous" dataType="double"/>
		<DataField name="x631" optype="continuous" dataType="double"/>
		<DataField name="x633" optype="continuous" dataType="double"/>
		<DataField name="x638" optype="continuous" dataType="double"/>
		<DataField name="x641" optype="continuous" dataType="double"/>
		<DataField name="x642" optype="continuous" dataType="double"/>
		<DataField name="x643" optype="continuous" dataType="double"/>
		<DataField name="x666" optype="continuous" dataType="double"/>
		<DataField name="x667" optype="continuous" dataType="double"/>
		<DataField name="x670" optype="continuous" dataType="double"/>
		<DataField name="x671" optype="continuous" dataType="double"/>
		<DataField name="x673" optype="continuous" dataType="double"/>
		<DataField name="x692" optype="continuous" dataType="double"/>
		<DataField name="x694" optype="continuous" dataType="double"/>
		<DataField name="x696" optype="continuous" dataType="double"/>
		<DataField name="x698" optype="continuous" dataType="double"/>
		<DataField name="x700" optype="continuous" dataType="double"/>
		<DataField name="x705" optype="continuous" dataType="double"/>
		<DataField name="x706" optype="continuous" dataType="double"/>
		<DataField name="x729" optype="continuous" dataType="double"/>
		<DataField name="x731" optype="continuous" dataType="double"/>
		<DataField name="x734" optype="continuous" dataType="double"/>
		<DataField name="x735" optype="continuous" dataType="double"/>
		<DataField name="x736" optype="continuous" dataType="double"/>
		<DataField name="x757" optype="continuous" dataType="double"/>
		<DataField name="x759" optype="continuous" dataType="double"/>
		<DataField name="x763" optype="continuous" dataType="double"/>
		<DataField name="x764" optype="continuous" dataType="double"/>
		<DataField name="x765" optype="continuous" dataType="double"/>
		<DataField name="x766" optype="continuous" dataType="double"/>
		<DataField name="x767" optype="continuous" dataType="double"/>
		<DataField name="x768" optype="continuous" dataType="double"/>
		<DataField name="x791" optype="continuous" dataType="double"/>
		<DataField name="x792" optype="continuous" dataType="double"/>
		<DataField name="x793" optype="continuous" dataType="double"/>
		<DataField name="x794" optype="continuous" dataType="double"/>
		<DataField name="x797" optype="continuous" dataType="double"/>
		<DataField name="x798" optype="continuous" dataType="double"/>
		<DataField name="x799" optype="continuous" dataType="double"/>
		<DataField name="x822" optype="continuous" dataType="double"/>
		<DataField name="x825" optype="continuous" dataType="double"/>
		<DataField name="x827" optype="continuous" dataType="double"/>
		<DataField name="x830" optype="continuous" dataType="double"/>
		<DataField name="x831" optype="continuous" dataType="double"/>
		<DataField name="x832" optype="continuous" dataType="double"/>
		<DataField name="x855" optype="continuous" dataType="double"/>
		<DataField name="x856" optype="continuous" dataType="double"/>
		<DataField name="x861" optype="continuous" dataType="double"/>
		<DataField name="x862" optype="continuous" dataType="double"/>
		<DataField name="x883" optype="continuous" dataType="double"/>
		<DataField name="x885" optype="continuous" dataType="double"/>
		<DataField name="x887" optype="continuous" dataType="double"/>
		<DataField name="x888" optype="continuous" dataType="double"/>
		<DataField name="x889" optype="continuous" dataType="double"/>
		<DataField name="x890" optype="continuous" dataType="double"/>
		<DataField name="x892" optype="continuous" dataType="double"/>
		<DataField name="x893" optype="continuous" dataType="double"/>
		<DataField name="x894" optype="continuous" dataType="double"/>
		<DataField name="x896" optype="continuous" dataType="double"/>
		<DataField name="x918" optype="continuous" dataType="double"/>
		<DataField name="x923" optype="continuous" dataType="double"/>
		<DataField name="x924" optype="continuous" dataType="double"/>
		<DataField name="x925" optype="continuous" dataType="double"/>
		<DataField name="x946" optype="continuous" dataType="double"/>
		<DataField name="x948" optype="continuous" dataType="double"/>
		<DataField name="x952" optype="continuous" dataType="double"/>
		<DataField name="x953" optype="continuous" dataType="double"/>
		<DataField name="x957" optype="continuous" dataType="double"/>
		<DataField name="x958" optype="continuous" dataType="double"/>
		<DataField name="x980" optype="continuous" dataType="double"/>
		<DataField name="x981" optype="continuous" dataType="double"/>
		<DataField name="x982" optype="continuous" dataType="double"/>
		<DataField name="x983" optype="continuous" dataType="double"/>
		<DataField name="x984" optype="continuous" dataType="double"/>
		<DataField name="x985" optype="continuous" dataType="double"/>
		<DataField name="x986" optype="continuous" dataType="double"/>
		<DataField name="x987" optype="continuous" dataType="double"/>
		<DataField name="x988" optype="continuous" dataType="double"/>
		<DataField name="x1007" optype="continuous" dataType="double"/>
		<DataField name="x1009" optype="continuous" dataType="double"/>
		<DataField name="x1011" optype="continuous" dataType="double"/>
		<DataField name="x1015" optype="continuous" dataType="double"/>
		<DataField name="x1016" optype="continuous" dataType="double"/>
		<DataField name="x1018" optype="continuous" dataType="double"/>
		<DataField name="x1020" optype="continuous" dataType="double"/>
		<DataField name="x1021" optype="continuous" dataType="double"/>
		<DataField name="x1022" optype="continuous" dataType="double"/>
		<DataField name="x1043" optype="continuous" dataType="double"/>
		<DataField name="x1044" optype="continuous" dataType="double"/>
		<DataField name="x1045" optype="continuous" dataType="double"/>
		<DataField name="x1047" optype="continuous" dataType="double"/>
		<DataField name="x1049" optype="continuous" dataType="double"/>
		<DataField name="x1050" optype="continuous" dataType="double"/>
		<DataField name="x1051" optype="continuous" dataType="double"/>
		<DataField name="x1072" optype="continuous" dataType="double"/>
		<DataField name="x1074" optype="continuous" dataType="double"/>
		<DataField name="x1077" optype="continuous" dataType="double"/>
		<DataField name="x1078" optype="continuous" dataType="double"/>
		<DataField name="x1079" optype="continuous" dataType="double"/>
		<DataField name="x1083" optype="continuous" dataType="double"/>
		<DataField name="x1084" optype="continuous" dataType="double"/>
		<DataField name="x1107" optype="continuous" dataType="double"/>
		<DataField name="x1108" optype="continuous" dataType="double"/>
		<DataField name="x1112" optype="continuous" dataType="double"/>
		<DataField name="x1113" optype="continuous" dataType="double"/>
		<DataField name="x1114" optype="continuous" dataType="double"/>
		<DataField name="x1135" optype="continuous" dataType="double"/>
		<DataField name="x1137" optype="continuous" dataType="double"/>
		<DataField name="x1140" optype="continuous" dataType="double"/>
		<DataField name="x1141" optype="continuous" dataType="double"/>
		<DataField name="x1142" optype="continuous" dataType="double"/>
		<DataField name="x1145" optype="continuous" dataType="double"/>
		<DataField name="x1146" optype="continuous" dataType="double"/>
		<DataField name="x1147" optype="continuous" dataType="double"/>
		<DataField name="x1170" optype="continuous" dataType="double"/>
		<DataField name="x1171" optype="continuous" dataType="double"/>
		<DataField name="x1175" optype="continuous" dataType="double"/>
		<DataField name="x1176" optype="continuous" dataType="double"/>
		<DataField name="x1177" optype="continuous" dataType="double"/>
		<DataField name="x1198" optype="continuous" dataType="double"/>
		<DataField name="x1200" optype="continuous" dataType="double"/>
		<DataField name="x1204" optype="continuous" dataType="double"/>
		<DataField name="x1205" optype="continuous" dataType="double"/>
		<DataField name="x1208" optype="continuous" dataType="double"/>
		<DataField name="x1209" optype="continuous" dataType="double"/>
		<DataField name="x1210" optype="continuous" dataType="double"/>
		<DataField name="x1219" optype="continuous" dataType="double"/>
		<DataField name="x1233" optype="continuous" dataType="double"/>
		<DataField name="x1234" optype="continuous" dataType="double"/>
		<DataField name="x1238" optype="continuous" dataType="double"/>
		<DataField name="x1239" optype="continuous" dataType="double"/>
		<DataField name="x1240" optype="continuous" dataType="double"/>
	</DataDictionary>
	<MiningModel functionName="classification" algorithmName="LightGBM">
		<MiningSchema>
			<Extension name="X-FeatureImportances">
				<InlineTable>
					<Extension name="numberOfImportances" value="253"/>
					<Extension name="numberOfNonZeroImportances" value="253"/>
					<Extension name="sumOfImportances" value="3000.0"/>
					<Extension name="minImportance" value="1.0"/>
					<Extension name="maxImportance" value="146.0"/>
					<row>
						<data:name>x1</data:name>
						<data:importance>5.0</data:importance>
					</row>
					<row>
						<data:name>x3</data:name>
						<data:importance>12.0</data:importance>
					</row>
					<row>
						<data:name>x8</data:name>
						<data:importance>6.0</data:importance>
					</row>
					<row>
						<data:name>x12</data:name>
						<data:importance>3.0</data:importance>
					</row>
					<row>
						<data:name>x13</data:name>
						<data:importance>1.0</data:importance>
					</row>
					<row>
						<data:name>x35</data:name>
						<data:importance>2.0</data:importance>
					</row>
					<row>
						<data:name>x36</data:name>
						<data:importance>5.0</data:importance>
					</row>
					<row>
						<data:name>x37</data:name>
						<data:importance>17.0</data:importance>
					</row>
					<row>
						<data:name>x41</data:name>
						<data:importance>6.0</data:importance>
					</row>
					<row>
						<data:name>x42</data:name>
						<data:importance>92.0</data:importance>
					</row>
					<row>
						<data:name>x43</data:name>
						<data:importance>9.0</data:importance>
					</row>
					<row>
						<data:name>x64</data:name>
						<data:importance>9.0</data:importance>
					</row>
					<row>
						<data:name>x66</data:name>
						<data:importance>1.0</data:importance>
					</row>
					<row>
						<data:name>x68</data:name>
						<data:importance>3.0</data:importance>
					</row>
					<row>
						<data:name>x70</data:name>
						<data:importance>3.0</data:importance>
					</row>
					<row>
						<data:name>x71</data:name>
						<data:importance>8.0</data:importance>
					</row>
					<row>
						<data:name>x73</data:name>
						<data:importance>2.0</data:importance>
					</row>
					<row>
						<data:name>x75</data:name>
						<data:importance>4.0</data:importance>
					</row>
					<row>
						<data:name>x99</data:name>
						<data:importance>27.0</data:importance>
					</row>
					<row>
						<data:name>x100</data:name>
						<data:importance>12.0</data:importance>
					</row>
					<row>
						<data:name>x102</data:name>
						<data:importance>7.0</data:importance>
					</row>
					<row>
						<data:name>x104</data:name>
						<data:importance>8.0</data:importance>
					</row>
					<row>
						<data:name>x105</data:name>
						<data:importance>11.0</data:importance>
					</row>
					<row>
						<data:name>x106</data:name>
						<data:importance>1.0</data:importance>
					</row>
					<row>
						<data:name>x119</data:name>
						<data:importance>4.0</data:importance>
					</row>
					<row>
						<data:name>x127</data:name>
						<data:importance>21.0</data:importance>
					</row>
					<row>
						<data:name>x132</data:name>
						<data:importance>2.0</data:importance>
					</row>
					<row>
						<data:name>x133</data:name>
						<data:importance>20.0</data:importance>
					</row>
					<row>
						<data:name>x137</data:name>
						<data:importance>1.0</data:importance>
					</row>
					<row>
						<data:name>x138</data:name>
						<data:importance>6.0</data:importance>
					</row>
					<row>
						<data:name>x139</data:name>
						<data:importance>2.0</data:importance>
					</row>
					<row>
						<data:name>x162</data:name>
						<data:importance>44.0</data:importance>
					</row>
					<row>
						<data:name>x163</data:name>
						<data:importance>4.0</data:importance>
					</row>
					<row>
						<data:name>x164</data:name>
						<data:importance>3.0</data:importance>
					</row>
					<row>
						<data:name>x167</data:name>
						<data:importance>12.0</data:importance>
					</row>
					<row>
						<data:name>x169</data:name>
						<data:importance>25.0</data:importance>
					</row>
					<row>
						<data:name>x190</data:name>
						<data:importance>4.0</data:importance>
					</row>
					<row>
						<data:name>x192</data:name>
						<data:importance>3.0</data:importance>
					</row>
					<row>
						<data:name>x195</data:name>
						<data:importance>8.0</data:importance>
					</row>
					<row>
						<data:name>x196</data:name>
						<data:importance>7.0</data:importance>
					</row>
					<row>
						<data:name>x201</data:name>
						<data:importance>3.0</data:importance>
					</row>
					<row>
						<data:name>x202</data:name>
						<data:importance>9.0</data:importance>
					</row>
					<row>
						<data:name>x225</data:name>
						<data:importance>45.0</data:importance>
					</row>
					<row>
						<data:name>x226</data:name>
						<data:importance>3.0</data:importance>
					</row>
					<row>
						<data:name>x228</data:name>
						<data:importance>3.0</data:importance>
					</row>
					<row>
						<data:name>x229</data:name>
						<data:importance>1.0</data:importance>
					</row>
					<row>
						<data:name>x230</data:name>
						<data:importance>16.0</data:importance>
					</row>
					<row>
						<data:name>x231</data:name>
						<data:importance>8.0</data:importance>
					</row>
					<row>
						<data:name>x232</data:name>
						<data:importance>1.0</data:importance>
					</row>
					<row>
						<data:name>x251</data:name>
						<data:importance>1.0</data:importance>
					</row>
					<row>
						<data:name>x253</data:name>
						<data:importance>3.0</data:importance>
					</row>
					<row>
						<data:name>x255</data:name>
						<data:importance>4.0</data:importance>
					</row>
					<row>
						<data:name>x258</data:name>
						<data:importance>1.0</data:importance>
					</row>
					<row>
						<data:name>x260</data:name>
						<data:importance>2.0</data:importance>
					</row>
					<row>
						<data:name>x261</data:name>
						<data:importance>2.0</data:importance>
					</row>
					<row>
						<data:name>x264</data:name>
						<data:importance>1.0</data:importance>
					</row>
					<row>
						<data:name>x265</data:name>
						<data:importance>2.0</data:importance>
					</row>
					<row>
						<data:name>x287</data:name>
						<data:importance>13.0</data:importance>
					</row>
					<row>
						<data:name>x288</data:name>
						<data:importance>4.0</data:importance>
					</row>
					<row>
						<data:name>x289</data:name>
						<data:importance>2.0</data:importance>
					</row>
					<row>
						<data:name>x293</data:name>
						<data:importance>13.0</data:importance>
					</row>
					<row>
						<data:name>x294</data:name>
						<data:importance>1.0</data:importance>
					</row>
					<row>
						<data:name>x295</data:name>
						<data:importance>5.0</data:importance>
					</row>
					<row>
						<data:name>x316</data:name>
						<data:importance>16.0</data:importance>
					</row>
					<row>
						<data:name>x318</data:name>
						<data:importance>3.0</data:importance>
					</row>
					<row>
						<data:name>x323</data:name>
						<data:importance>8.0</data:importance>
					</row>
					<row>
						<data:name>x325</data:name>
						<data:importance>1.0</data:importance>
					</row>
					<row>
						<data:name>x326</data:name>
						<data:importance>1.0</data:importance>
					</row>
					<row>
						<data:name>x327</data:name>
						<data:importance>2.0</data:importance>
					</row>
					<row>
						<data:name>x328</data:name>
						<data:importance>20.0</data:importance>
					</row>
					<row>
						<data:name>x351</data:name>
						<data:importance>2.0</data:importance>
					</row>
					<row>
						<data:name>x352</data:name>
						<data:importance>1.0</data:importance>
					</row>
					<row>
						<data:name>x355</data:name>
						<data:importance>1.0</data:importance>
					</row>
					<row>
						<data:name>x356</data:name>
						<data:importance>2.0</data:importance>
					</row>
					<row>
						<data:name>x357</data:name>
						<data:importance>2.0</data:importance>
					</row>
					<row>
						<data:name>x358</data:name>
						<data:importance>15.0</data:importance>
					</row>
					<row>
						<data:name>x371</data:name>
						<data:importance>1.0</data:importance>
					</row>
					<row>
						<data:name>x379</data:name>
						<data:importance>7.0</data:importance>
					</row>
					<row>
						<data:name>x381</data:name>
						<data:importance>20.0</data:importance>
					</row>
					<row>
						<data:name>x384</data:name>
						<data:importance>2.0</data:importance>
					</row>
					<row>
						<data:name>x386</data:name>
						<data:importance>50.0</data:importance>
					</row>
					<row>
						<data:name>x389</data:name>
						<data:importance>3.0</data:importance>
					</row>
					<row>
						<data:name>x390</data:name>
						<data:importance>15.0</data:importance>
					</row>
					<row>
						<data:name>x391</data:name>
						<data:importance>1.0</data:importance>
					</row>
					<row>
						<data:name>x398</data:name>
						<data:importance>1.0</data:importance>
					</row>
					<row>
						<data:name>x419</data:name>
						<data:importance>13.0</data:importance>
					</row>
					<row>
						<data:name>x420</data:name>
						<data:importance>7.0</data:importance>
					</row>
					<row>
						<data:name>x421</data:name>
						<data:importance>22.0</data:importance>
					</row>
					<row>
						<data:name>x442</data:name>
						<data:importance>15.0</data:importance>
					</row>
					<row>
						<data:name>x444</data:name>
						<data:importance>4.0</data:importance>
					</row>
					<row>
						<data:name>x446</data:name>
						<data:importance>1.0</data:importance>
					</row>
					<row>
						<data:name>x447</data:name>
						<data:importance>2.0</data:importance>
					</row>
					<row>
						<data:name>x448</data:name>
						<data:importance>1.0</data:importance>
					</row>
					<row>
						<data:name>x449</data:name>
						<data:importance>13.0</data:importance>
					</row>
					<row>
						<data:name>x451</data:name>
						<data:importance>1.0</data:importance>
					</row>
					<row>
						<data:name>x477</data:name>
						<data:importance>1.0</data:importance>
					</row>
					<row>
						<data:name>x478</data:name>
						<data:importance>4.0</data:importance>
					</row>
					<row>
						<data:name>x481</data:name>
						<data:importance>1.0</data:importance>
					</row>
					<row>
						<data:name>x482</data:name>
						<data:importance>7.0</data:importance>
					</row>
					<row>
						<data:name>x483</data:name>
						<data:importance>15.0</data:importance>
					</row>
					<row>
						<data:name>x505</data:name>
						<data:importance>1.0</data:importance>
					</row>
					<row>
						<data:name>x507</data:name>
						<data:importance>2.0</data:importance>
					</row>
					<row>
						<data:name>x509</data:name>
						<data:importance>1.0</data:importance>
					</row>
					<row>
						<data:name>x512</data:name>
						<data:importance>3.0</data:importance>
					</row>
					<row>
						<data:name>x516</data:name>
						<data:importance>1.0</data:importance>
					</row>
					<row>
						<data:name>x539</data:name>
						<data:importance>2.0</data:importance>
					</row>
					<row>
						<data:name>x540</data:name>
						<data:importance>18.0</data:importance>
					</row>
					<row>
						<data:name>x541</data:name>
						<data:importance>11.0</data:importance>
					</row>
					<row>
						<data:name>x545</data:name>
						<data:importance>8.0</data:importance>
					</row>
					<row>
						<data:name>x546</data:name>
						<data:importance>8.0</data:importance>
					</row>
					<row>
						<data:name>x547</data:name>
						<data:importance>3.0</data:importance>
					</row>
					<row>
						<data:name>x568</data:name>
						<data:importance>9.0</data:importance>
					</row>
					<row>
						<data:name>x570</data:name>
						<data:importance>9.0</data:importance>
					</row>
					<row>
						<data:name>x575</data:name>
						<data:importance>6.0</data:importance>
					</row>
					<row>
						<data:name>x577</data:name>
						<data:importance>1.0</data:importance>
					</row>
					<row>
						<data:name>x578</data:name>
						<data:importance>1.0</data:importance>
					</row>
					<row>
						<data:name>x579</data:name>
						<data:importance>3.0</data:importance>
					</row>
					<row>
						<data:name>x603</data:name>
						<data:importance>36.0</data:importance>
					</row>
					<row>
						<data:name>x604</data:name>
						<data:importance>9.0</data:importance>
					</row>
					<row>
						<data:name>x608</data:name>
						<data:importance>16.0</data:importance>
					</row>
					<row>
						<data:name>x609</data:name>
						<data:importance>5.0</data:importance>
					</row>
					<row>
						<data:name>x610</data:name>
						<data:importance>5.0</data:importance>
					</row>
					<row>
						<data:name>x631</data:name>
						<data:importance>1.0</data:importance>
					</row>
					<row>
						<data:name>x633</data:name>
						<data:importance>1.0</data:importance>
					</row>
					<row>
						<data:name>x638</data:name>
						<data:importance>4.0</data:importance>
					</row>
					<row>
						<data:name>x641</data:name>
						<data:importance>2.0</data:importance>
					</row>
					<row>
						<data:name>x642</data:name>
						<data:importance>5.0</data:importance>
					</row>
					<row>
						<data:name>x643</data:name>
						<data:importance>7.0</data:importance>
					</row>
					<row>
						<data:name>x666</data:name>
						<data:importance>33.0</data:importance>
					</row>
					<row>
						<data:name>x667</data:name>
						<data:importance>8.0</data:importance>
					</row>
					<row>
						<data:name>x670</data:name>
						<data:importance>2.0</data:importance>
					</row>
					<row>
						<data:name>x671</data:name>
						<data:importance>20.0</data:importance>
					</row>
					<row>
						<data:name>x673</data:name>
						<data:importance>32.0</data:importance>
					</row>
					<row>
						<data:name>x692</data:name>
						<data:importance>1.0</data:importance>
					</row>
					<row>
						<data:name>x694</data:name>
						<data:importance>5.0</data:importance>
					</row>
					<row>
						<data:name>x696</data:name>
						<data:importance>9.0</data:importance>
					</row>
					<row>
						<data:name>x698</data:name>
						<data:importance>1.0</data:importance>
					</row>
					<row>
						<data:name>x700</data:name>
						<data:importance>10.0</data:importance>
					</row>
					<row>
						<data:name>x705</data:name>
						<data:importance>11.0</data:importance>
					</row>
					<row>
						<data:name>x706</data:name>
						<data:importance>1.0</data:importance>
					</row>
					<row>
						<data:name>x729</data:name>
						<data:importance>28.0</data:importance>
					</row>
					<row>
						<data:name>x731</data:name>
						<data:importance>2.0</data:importance>
					</row>
					<row>
						<data:name>x734</data:name>
						<data:importance>35.0</data:importance>
					</row>
					<row>
						<data:name>x735</data:name>
						<data:importance>8.0</data:importance>
					</row>
					<row>
						<data:name>x736</data:name>
						<data:importance>11.0</data:importance>
					</row>
					<row>
						<data:name>x757</data:name>
						<data:importance>3.0</data:importance>
					</row>
					<row>
						<data:name>x759</data:name>
						<data:importance>3.0</data:importance>
					</row>
					<row>
						<data:name>x763</data:name>
						<data:importance>2.0</data:importance>
					</row>
					<row>
						<data:name>x764</data:name>
						<data:importance>13.0</data:importance>
					</row>
					<row>
						<data:name>x765</data:name>
						<data:importance>4.0</data:importance>
					</row>
					<row>
						<data:name>x766</data:name>
						<data:importance>1.0</data:importance>
					</row>
					<row>
						<data:name>x767</data:name>
						<data:importance>4.0</data:importance>
					</row>
					<row>
						<data:name>x768</data:name>
						<data:importance>2.0</data:importance>
					</row>
					<row>
						<data:name>x791</data:name>
						<data:importance>10.0</data:importance>
					</row>
					<row>
						<data:name>x792</data:name>
						<data:importance>26.0</data:importance>
					</row>
					<row>
						<data:name>x793</data:name>
						<data:importance>1.0</data:importance>
					</row>
					<row>
						<data:name>x794</data:name>
						<data:importance>6.0</data:importance>
					</row>
					<row>
						<data:name>x797</data:name>
						<data:importance>2.0</data:importance>
					</row>
					<row>
						<data:name>x798</data:name>
						<data:importance>8.0</data:importance>
					</row>
					<row>
						<data:name>x799</data:name>
						<data:importance>6.0</data:importance>
					</row>
					<row>
						<data:name>x822</data:name>
						<data:importance>3.0</data:importance>
					</row>
					<row>
						<data:name>x825</data:name>
						<data:importance>4.0</data:importance>
					</row>
					<row>
						<data:name>x827</data:name>
						<data:importance>4.0</data:importance>
					</row>
					<row>
						<data:name>x830</data:name>
						<data:importance>1.0</data:importance>
					</row>
					<row>
						<data:name>x831</data:name>
						<data:importance>3.0</data:importance>
					</row>
					<row>
						<data:name>x832</data:name>
						<data:importance>2.0</data:importance>
					</row>
					<row>
						<data:name>x855</data:name>
						<data:importance>2.0</data:importance>
					</row>
					<row>
						<data:name>x856</data:name>
						<data:importance>1.0</data:importance>
					</row>
					<row>
						<data:name>x861</data:name>
						<data:importance>22.0</data:importance>
					</row>
					<row>
						<data:name>x862</data:name>
						<data:importance>22.0</data:importance>
					</row>
					<row>
						<data:name>x883</data:name>
						<data:importance>7.0</data:importance>
					</row>
					<row>
						<data:name>x885</data:name>
						<data:importance>11.0</data:importance>
					</row>
					<row>
						<data:name>x887</data:name>
						<data:importance>2.0</data:importance>
					</row>
					<row>
						<data:name>x888</data:name>
						<data:importance>6.0</data:importance>
					</row>
					<row>
						<data:name>x889</data:name>
						<data:importance>2.0</data:importance>
					</row>
					<row>
						<data:name>x890</data:name>
						<data:importance>48.0</data:importance>
					</row>
					<row>
						<data:name>x892</data:name>
						<data:importance>2.0</data:importance>
					</row>
					<row>
						<data:name>x893</data:name>
						<data:importance>7.0</data:importance>
					</row>
					<row>
						<data:name>x894</data:name>
						<data:importance>13.0</data:importance>
					</row>
					<row>
						<data:name>x896</data:name>
						<data:importance>1.0</data:importance>
					</row>
					<row>
						<data:name>x918</data:name>
						<data:importance>28.0</data:importance>
					</row>
					<row>
						<data:name>x923</data:name>
						<data:importance>8.0</data:importance>
					</row>
					<row>
						<data:name>x924</data:name>
						<data:importance>64.0</data:importance>
					</row>
					<row>
						<data:name>x925</data:name>
						<data:importance>1.0</data:importance>
					</row>
					<row>
						<data:name>x946</data:name>
						<data:importance>13.0</data:importance>
					</row>
					<row>
						<data:name>x948</data:name>
						<data:importance>20.0</data:importance>
					</row>
					<row>
						<data:name>x952</data:name>
						<data:importance>1.0</data:importance>
					</row>
					<row>
						<data:name>x953</data:name>
						<data:importance>28.0</data:importance>
					</row>
					<row>
						<data:name>x957</data:name>
						<data:importance>9.0</data:importance>
					</row>
					<row>
						<data:name>x958</data:name>
						<data:importance>1.0</data:importance>
					</row>
					<row>
						<data:name>x980</data:name>
						<data:importance>1.0</data:importance>
					</row>
					<row>
						<data:name>x981</data:name>
						<data:importance>2.0</data:importance>
					</row>
					<row>
						<data:name>x982</data:name>
						<data:importance>14.0</data:importance>
					</row>
					<row>
						<data:name>x983</data:name>
						<data:importance>1.0</data:importance>
					</row>
					<row>
						<data:name>x984</data:name>
						<data:importance>1.0</data:importance>
					</row>
					<row>
						<data:name>x985</data:name>
						<data:importance>1.0</data:importance>
					</row>
					<row>
						<data:name>x986</data:name>
						<data:importance>20.0</data:importance>
					</row>
					<row>
						<data:name>x987</data:name>
						<data:importance>18.0</data:importance>
					</row>
					<row>
						<data:name>x988</data:name>
						<data:importance>7.0</data:importance>
					</row>
					<row>
						<data:name>x1007</data:name>
						<data:importance>1.0</data:importance>
					</row>
					<row>
						<data:name>x1009</data:name>
						<data:importance>16.0</data:importance>
					</row>
					<row>
						<data:name>x1011</data:name>
						<data:importance>57.0</data:importance>
					</row>
					<row>
						<data:name>x1015</data:name>
						<data:importance>3.0</data:importance>
					</row>
					<row>
						<data:name>x1016</data:name>
						<data:importance>6.0</data:importance>
					</row>
					<row>
						<data:name>x1018</data:name>
						<data:importance>1.0</data:importance>
					</row>
					<row>
						<data:name>x1020</data:name>
						<data:importance>35.0</data:importance>
					</row>
					<row>
						<data:name>x1021</data:name>
						<data:importance>2.0</data:importance>
					</row>
					<row>
						<data:name>x1022</data:name>
						<data:importance>1.0</data:importance>
					</row>
					<row>
						<data:name>x1043</data:name>
						<data:importance>11.0</data:importance>
					</row>
					<row>
						<data:name>x1044</data:name>
						<data:importance>19.0</data:importance>
					</row>
					<row>
						<data:name>x1045</data:name>
						<data:importance>2.0</data:importance>
					</row>
					<row>
						<data:name>x1047</data:name>
						<data:importance>1.0</data:importance>
					</row>
					<row>
						<data:name>x1049</data:name>
						<data:importance>23.0</data:importance>
					</row>
					<row>
						<data:name>x1050</data:name>
						<data:importance>27.0</data:importance>
					</row>
					<row>
						<data:name>x1051</data:name>
						<data:importance>21.0</data:importance>
					</row>
					<row>
						<data:name>x1072</data:name>
						<data:importance>2.0</data:importance>
					</row>
					<row>
						<data:name>x1074</data:name>
						<data:importance>19.0</data:importance>
					</row>
					<row>
						<data:name>x1077</data:name>
						<data:importance>5.0</data:importance>
					</row>
					<row>
						<data:name>x1078</data:name>
						<data:importance>1.0</data:importance>
					</row>
					<row>
						<data:name>x1079</data:name>
						<data:importance>8.0</data:importance>
					</row>
					<row>
						<data:name>x1083</data:name>
						<data:importance>7.0</data:importance>
					</row>
					<row>
						<data:name>x1084</data:name>
						<data:importance>13.0</data:importance>
					</row>
					<row>
						<data:name>x1107</data:name>
						<data:importance>13.0</data:importance>
					</row>
					<row>
						<data:name>x1108</data:name>
						<data:importance>10.0</data:importance>
					</row>
					<row>
						<data:name>x1112</data:name>
						<data:importance>5.0</data:importance>
					</row>
					<row>
						<data:name>x1113</data:name>
						<data:importance>28.0</data:importance>
					</row>
					<row>
						<data:name>x1114</data:name>
						<data:importance>29.0</data:importance>
					</row>
					<row>
						<data:name>x1135</data:name>
						<data:importance>20.0</data:importance>
					</row>
					<row>
						<data:name>x1137</data:name>
						<data:importance>112.0</data:importance>
					</row>
					<row>
						<data:name>x1140</data:name>
						<data:importance>7.0</data:importance>
					</row>
					<row>
						<data:name>x1141</data:name>
						<data:importance>4.0</data:importance>
					</row>
					<row>
						<data:name>x1142</data:name>
						<data:importance>3.0</data:importance>
					</row>
					<row>
						<data:name>x1145</data:name>
						<data:importance>12.0</data:importance>
					</row>
					<row>
						<data:name>x1146</data:name>
						<data:importance>5.0</data:importance>
					</row>
					<row>
						<data:name>x1147</data:name>
						<data:importance>23.0</data:importance>
					</row>
					<row>
						<data:name>x1170</data:name>
						<data:importance>37.0</data:importance>
					</row>
					<row>
						<data:name>x1171</data:name>
						<data:importance>17.0</data:importance>
					</row>
					<row>
						<data:name>x1175</data:name>
						<data:importance>19.0</data:importance>
					</row>
					<row>
						<data:name>x1176</data:name>
						<data:importance>38.0</data:importance>
					</row>
					<row>
						<data:name>x1177</data:name>
						<data:importance>43.0</data:importance>
					</row>
					<row>
						<data:name>x1198</data:name>
						<data:importance>3.0</data:importance>
					</row>
					<row>
						<data:name>x1200</data:name>
						<data:importance>146.0</data:importance>
					</row>
					<row>
						<data:name>x1204</data:name>
						<data:importance>9.0</data:importance>
					</row>
					<row>
						<data:name>x1205</data:name>
						<data:importance>2.0</data:importance>
					</row>
					<row>
						<data:name>x1208</data:name>
						<data:importance>7.0</data:importance>
					</row>
					<row>
						<data:name>x1209</data:name>
						<data:importance>73.0</data:importance>
					</row>
					<row>
						<data:name>x1210</data:name>
						<data:importance>81.0</data:importance>
					</row>
					<row>
						<data:name>x1219</data:name>
						<data:importance>1.0</data:importance>
					</row>
					<row>
						<data:name>x1233</data:name>
						<data:importance>17.0</data:importance>
					</row>
					<row>
						<data:name>x1234</data:name>
						<data:importance>18.0</data:importance>
					</row>
					<row>
						<data:name>x1238</data:name>
						<data:importance>47.0</data:importance>
					</row>
					<row>
						<data:name>x1239</data:name>
						<data:importance>82.0</data:importance>
					</row>
					<row>
						<data:name>x1240</data:name>
						<data:importance>77.0</data:importance>
					</row>
				</InlineTable>
			</Extension>
			<MiningField name="y" usageType="target"/>
			<MiningField name="x1" importance="5.0"/>
			<MiningField name="x3" importance="12.0"/>
			<MiningField name="x8" importance="6.0"/>
			<MiningField name="x12" importance="3.0"/>
			<MiningField name="x13" importance="1.0"/>
			<MiningField name="x35" importance="2.0"/>
			<MiningField name="x36" importance="5.0"/>
			<MiningField name="x37" importance="17.0"/>
			<MiningField name="x41" importance="6.0"/>
			<MiningField name="x42" importance="92.0"/>
			<MiningField name="x43" importance="9.0"/>
			<MiningField name="x64" importance="9.0"/>
			<MiningField name="x66" importance="1.0"/>
			<MiningField name="x68" importance="3.0"/>
			<MiningField name="x70" importance="3.0"/>
			<MiningField name="x71" importance="8.0"/>
			<MiningField name="x73" importance="2.0"/>
			<MiningField name="x75" importance="4.0"/>
			<MiningField name="x99" importance="27.0"/>
			<MiningField name="x100" importance="12.0"/>
			<MiningField name="x102" importance="7.0"/>
			<MiningField name="x104" importance="8.0"/>
			<MiningField name="x105" importance="11.0"/>
			<MiningField name="x106" importance="1.0"/>
			<MiningField name="x119" importance="4.0"/>
			<MiningField name="x127" importance="21.0"/>
			<MiningField name="x132" importance="2.0"/>
			<MiningField name="x133" importance="20.0"/>
			<MiningField name="x137" importance="1.0"/>
			<MiningField name="x138" importance="6.0"/>
			<MiningField name="x139" importance="2.0"/>
			<MiningField name="x162" importance="44.0"/>
			<MiningField name="x163" importance="4.0"/>
			<MiningField name="x164" importance="3.0"/>
			<MiningField name="x167" importance="12.0"/>
			<MiningField name="x169" importance="25.0"/>
			<MiningField name="x190" importance="4.0"/>
			<MiningField name="x192" importance="3.0"/>
			<MiningField name="x195" importance="8.0"/>
			<MiningField name="x196" importance="7.0"/>
			<MiningField name="x201" importance="3.0"/>
			<MiningField name="x202" importance="9.0"/>
			<MiningField name="x225" importance="45.0"/>
			<MiningField name="x226" importance="3.0"/>
			<MiningField name="x228" importance="3.0"/>
			<MiningField name="x229" importance="1.0"/>
			<MiningField name="x230" importance="16.0"/>
			<MiningField name="x231" importance="8.0"/>
			<MiningField name="x232" importance="1.0"/>
			<MiningField name="x251" importance="1.0"/>
			<MiningField name="x253" importance="3.0"/>
			<MiningField name="x255" importance="4.0"/>
			<MiningField name="x258" importance="1.0"/>
			<MiningField name="x260" importance="2.0"/>
			<MiningField name="x261" importance="2.0"/>
			<MiningField name="x264" importance="1.0"/>
			<MiningField name="x265" importance="2.0"/>
			<MiningField name="x287" importance="13.0"/>
			<MiningField name="x288" importance="4.0"/>
			<MiningField name="x289" importance="2.0"/>
			<MiningField name="x293" importance="13.0"/>
			<MiningField name="x294" importance="1.0"/>
			<MiningField name="x295" importance="5.0"/>
			<MiningField name="x316" importance="16.0"/>
			<MiningField name="x318" importance="3.0"/>
			<MiningField name="x323" importance="8.0"/>
			<MiningField name="x325" importance="1.0"/>
			<MiningField name="x326" importance="1.0"/>
			<MiningField name="x327" importance="2.0"/>
			<MiningField name="x328" importance="20.0"/>
			<MiningField name="x351" importance="2.0"/>
			<MiningField name="x352" importance="1.0"/>
			<MiningField name="x355" importance="1.0"/>
			<MiningField name="x356" importance="2.0"/>
			<MiningField name="x357" importance="2.0"/>
			<MiningField name="x358" importance="15.0"/>
			<MiningField name="x371" importance="1.0"/>
			<MiningField name="x379" importance="7.0"/>
			<MiningField name="x381" importance="20.0"/>
			<MiningField name="x384" importance="2.0"/>
			<MiningField name="x386" importance="50.0"/>
			<MiningField name="x389" importance="3.0"/>
			<MiningField name="x390" importance="15.0"/>
			<MiningField name="x391" importance="1.0"/>
			<MiningField name="x398" importance="1.0"/>
			<MiningField name="x419" importance="13.0"/>
			<MiningField name="x420" importance="7.0"/>
			<MiningField name="x421" importance="22.0"/>
			<MiningField name="x442" importance="15.0"/>
			<MiningField name="x444" importance="4.0"/>
			<MiningField name="x446" importance="1.0"/>
			<MiningField name="x447" importance="2.0"/>
			<MiningField name="x448" importance="1.0"/>
			<MiningField name="x449" importance="13.0"/>
			<MiningField name="x451" importance="1.0"/>
			<MiningField name="x477" importance="1.0"/>
			<MiningField name="x478" importance="4.0"/>
			<MiningField name="x481" importance="1.0"/>
			<MiningField name="x482" importance="7.0"/>
			<MiningField name="x483" importance="15.0"/>
			<MiningField name="x505" importance="1.0"/>
			<MiningField name="x507" importance="2.0"/>
			<MiningField name="x509" importance="1.0"/>
			<MiningField name="x512" importance="3.0"/>
			<MiningField name="x516" importance="1.0"/>
			<MiningField name="x539" importance="2.0"/>
			<MiningField name="x540" importance="18.0"/>
			<MiningField name="x541" importance="11.0"/>
			<MiningField name="x545" importance="8.0"/>
			<MiningField name="x546" importance="8.0"/>
			<MiningField name="x547" importance="3.0"/>
			<MiningField name="x568" importance="9.0"/>
			<MiningField name="x570" importance="9.0"/>
			<MiningField name="x575" importance="6.0"/>
			<MiningField name="x577" importance="1.0"/>
			<MiningField name="x578" importance="1.0"/>
			<MiningField name="x579" importance="3.0"/>
			<MiningField name="x603" importance="36.0"/>
			<MiningField name="x604" importance="9.0"/>
			<MiningField name="x608" importance="16.0"/>
			<MiningField name="x609" importance="5.0"/>
			<MiningField name="x610" importance="5.0"/>
			<MiningField name="x631" importance="1.0"/>
			<MiningField name="x633" importance="1.0"/>
			<MiningField name="x638" importance="4.0"/>
			<MiningField name="x641" importance="2.0"/>
			<MiningField name="x642" importance="5.0"/>
			<MiningField name="x643" importance="7.0"/>
			<MiningField name="x666" importance="33.0"/>
			<MiningField name="x667" importance="8.0"/>
			<MiningField name="x670" importance="2.0"/>
			<MiningField name="x671" importance="20.0"/>
			<MiningField name="x673" importance="32.0"/>
			<MiningField name="x692" importance="1.0"/>
			<MiningField name="x694" importance="5.0"/>
			<MiningField name="x696" importance="9.0"/>
			<MiningField name="x698" importance="1.0"/>
			<MiningField name="x700" importance="10.0"/>
			<MiningField name="x705" importance="11.0"/>
			<MiningField name="x706" importance="1.0"/>
			<MiningField name="x729" importance="28.0"/>
			<MiningField name="x731" importance="2.0"/>
			<MiningField name="x734" importance="35.0"/>
			<MiningField name="x735" importance="8.0"/>
			<MiningField name="x736" importance="11.0"/>
			<MiningField name="x757" importance="3.0"/>
			<MiningField name="x759" importance="3.0"/>
			<MiningField name="x763" importance="2.0"/>
			<MiningField name="x764" importance="13.0"/>
			<MiningField name="x765" importance="4.0"/>
			<MiningField name="x766" importance="1.0"/>
			<MiningField name="x767" importance="4.0"/>
			<MiningField name="x768" importance="2.0"/>
			<MiningField name="x791" importance="10.0"/>
			<MiningField name="x792" importance="26.0"/>
			<MiningField name="x793" importance="1.0"/>
			<MiningField name="x794" importance="6.0"/>
			<MiningField name="x797" importance="2.0"/>
			<MiningField name="x798" importance="8.0"/>
			<MiningField name="x799" importance="6.0"/>
			<MiningField name="x822" importance="3.0"/>
			<MiningField name="x825" importance="4.0"/>
			<MiningField name="x827" importance="4.0"/>
			<MiningField name="x830" importance="1.0"/>
			<MiningField name="x831" importance="3.0"/>
			<MiningField name="x832" importance="2.0"/>
			<MiningField name="x855" importance="2.0"/>
			<MiningField name="x856" importance="1.0"/>
			<MiningField name="x861" importance="22.0"/>
			<MiningField name="x862" importance="22.0"/>
			<MiningField name="x883" importance="7.0"/>
			<MiningField name="x885" importance="11.0"/>
			<MiningField name="x887" importance="2.0"/>
			<MiningField name="x888" importance="6.0"/>
			<MiningField name="x889" importance="2.0"/>
			<MiningField name="x890" importance="48.0"/>
			<MiningField name="x892" importance="2.0"/>
			<MiningField name="x893" importance="7.0"/>
			<MiningField name="x894" importance="13.0"/>
			<MiningField name="x896" importance="1.0"/>
			<MiningField name="x918" importance="28.0"/>
			<MiningField name="x923" importance="8.0"/>
			<MiningField name="x924" importance="64.0"/>
			<MiningField name="x925" importance="1.0"/>
			<MiningField name="x946" importance="13.0"/>
			<MiningField name="x948" importance="20.0"/>
			<MiningField name="x952" importance="1.0"/>
			<MiningField name="x953" importance="28.0"/>
			<MiningField name="x957" importance="9.0"/>
			<MiningField name="x958" importance="1.0"/>
			<MiningField name="x980" importance="1.0"/>
			<MiningField name="x981" importance="2.0"/>
			<MiningField name="x982" importance="14.0"/>
			<MiningField name="x983" importance="1.0"/>
			<MiningField name="x984" importance="1.0"/>
			<MiningField name="x985" importance="1.0"/>
			<MiningField name="x986" importance="20.0"/>
			<MiningField name="x987" importance="18.0"/>
			<MiningField name="x988" importance="7.0"/>
			<MiningField name="x1007" importance="1.0"/>
			<MiningField name="x1009" importance="16.0"/>
			<MiningField name="x1011" importance="57.0"/>
			<MiningField name="x1015" importance="3.0"/>
			<MiningField name="x1016" importance="6.0"/>
			<MiningField name="x1018" importance="1.0"/>
			<MiningField name="x1020" importance="35.0"/>
			<MiningField name="x1021" importance="2.0"/>
			<MiningField name="x1022" importance="1.0"/>
			<MiningField name="x1043" importance="11.0"/>
			<MiningField name="x1044" importance="19.0"/>
			<MiningField name="x1045" importance="2.0"/>
			<MiningField name="x1047" importance="1.0"/>
			<MiningField name="x1049" importance="23.0"/>
			<MiningField name="x1050" importance="27.0"/>
			<MiningField name="x1051" importance="21.0"/>
			<MiningField name="x1072" importance="2.0"/>
			<MiningField name="x1074" importance="19.0"/>
			<MiningField name="x1077" importance="5.0"/>
			<MiningField name="x1078" importance="1.0"/>
			<MiningField name="x1079" importance="8.0"/>
			<MiningField name="x1083" importance="7.0"/>
			<MiningField name="x1084" importance="13.0"/>
			<MiningField name="x1107" importance="13.0"/>
			<MiningField name="x1108" importance="10.0"/>
			<MiningField name="x1112" importance="5.0"/>
			<MiningField name="x1113" importance="28.0"/>
			<MiningField name="x1114" importance="29.0"/>
			<MiningField name="x1135" importance="20.0"/>
			<MiningField name="x1137" importance="112.0"/>
			<MiningField name="x1140" importance="7.0"/>
			<MiningField name="x1141" importance="4.0"/>
			<MiningField name="x1142" importance="3.0"/>
			<MiningField name="x1145" importance="12.0"/>
			<MiningField name="x1146" importance="5.0"/>
			<MiningField name="x1147" importance="23.0"/>
			<MiningField name="x1170" importance="37.0"/>
			<MiningField name="x1171" importance="17.0"/>
			<MiningField name="x1175" importance="19.0"/>
			<MiningField name="x1176" importance="38.0"/>
			<MiningField name="x1177" importance="43.0"/>
			<MiningField name="x1198" importance="3.0"/>
			<MiningField name="x1200" importance="146.0"/>
			<MiningField name="x1204" importance="9.0"/>
			<MiningField name="x1205" importance="2.0"/>
			<MiningField name="x1208" importance="7.0"/>
			<MiningField name="x1209" importance="73.0"/>
			<MiningField name="x1210" importance="81.0"/>
			<MiningField name="x1219" importance="1.0"/>
			<MiningField name="x1233" importance="17.0"/>
			<MiningField name="x1234" importance="18.0"/>
			<MiningField name="x1238" importance="47.0"/>
			<MiningField name="x1239" importance="82.0"/>
			<MiningField name="x1240" importance="77.0"/>
		</MiningSchema>
		<Segmentation multipleModelMethod="modelChain" missingPredictionTreatment="returnMissing">
			<Segment id="1">
				<True/>
				<MiningModel functionName="regression">
					<MiningSchema>
						<MiningField name="x1"/>
						<MiningField name="x3"/>
						<MiningField name="x8"/>
						<MiningField name="x12"/>
						<MiningField name="x13"/>
						<MiningField name="x35"/>
						<MiningField name="x36"/>
						<MiningField name="x37"/>
						<MiningField name="x41"/>
						<MiningField name="x42"/>
						<MiningField name="x43"/>
						<MiningField name="x64"/>
						<MiningField name="x66"/>
						<MiningField name="x68"/>
						<MiningField name="x70"/>
						<MiningField name="x71"/>
						<MiningField name="x73"/>
						<MiningField name="x75"/>
						<MiningField name="x99"/>
						<MiningField name="x100"/>
						<MiningField name="x102"/>
						<MiningField name="x104"/>
						<MiningField name="x105"/>
						<MiningField name="x106"/>
						<MiningField name="x119"/>
						<MiningField name="x127"/>
						<MiningField name="x132"/>
						<MiningField name="x133"/>
						<MiningField name="x137"/>
						<MiningField name="x138"/>
						<MiningField name="x139"/>
						<MiningField name="x162"/>
						<MiningField name="x163"/>
						<MiningField name="x164"/>
						<MiningField name="x167"/>
						<MiningField name="x169"/>
						<MiningField name="x190"/>
						<MiningField name="x192"/>
						<MiningField name="x195"/>
						<MiningField name="x196"/>
						<MiningField name="x201"/>
						<MiningField name="x202"/>
						<MiningField name="x225"/>
						<MiningField name="x226"/>
						<MiningField name="x228"/>
						<MiningField name="x229"/>
						<MiningField name="x230"/>
						<MiningField name="x231"/>
						<MiningField name="x232"/>
						<MiningField name="x251"/>
						<MiningField name="x253"/>
						<MiningField name="x255"/>
						<MiningField name="x258"/>
						<MiningField name="x260"/>
						<MiningField name="x261"/>
						<MiningField name="x264"/>
						<MiningField name="x265"/>
						<MiningField name="x287"/>
						<MiningField name="x288"/>
						<MiningField name="x289"/>
						<MiningField name="x293"/>
						<MiningField name="x294"/>
						<MiningField name="x295"/>
						<MiningField name="x316"/>
						<MiningField name="x318"/>
						<MiningField name="x323"/>
						<MiningField name="x325"/>
						<MiningField name="x326"/>
						<MiningField name="x327"/>
						<MiningField name="x328"/>
						<MiningField name="x351"/>
						<MiningField name="x352"/>
						<MiningField name="x355"/>
						<MiningField name="x356"/>
						<MiningField name="x357"/>
						<MiningField name="x358"/>
						<MiningField name="x371"/>
						<MiningField name="x379"/>
						<MiningField name="x381"/>
						<MiningField name="x384"/>
						<MiningField name="x386"/>
						<MiningField name="x389"/>
						<MiningField name="x390"/>
						<MiningField name="x391"/>
						<MiningField name="x398"/>
						<MiningField name="x419"/>
						<MiningField name="x420"/>
						<MiningField name="x421"/>
						<MiningField name="x442"/>
						<MiningField name="x444"/>
						<MiningField name="x446"/>
						<MiningField name="x447"/>
						<MiningField name="x448"/>
						<MiningField name="x449"/>
						<MiningField name="x451"/>
						<MiningField name="x477"/>
						<MiningField name="x478"/>
						<MiningField name="x481"/>
						<MiningField name="x482"/>
						<MiningField name="x483"/>
						<MiningField name="x505"/>
						<MiningField name="x507"/>
						<MiningField name="x509"/>
						<MiningField name="x512"/>
						<MiningField name="x516"/>
						<MiningField name="x539"/>
						<MiningField name="x540"/>
						<MiningField name="x541"/>
						<MiningField name="x545"/>
						<MiningField name="x546"/>
						<MiningField name="x547"/>
						<MiningField name="x568"/>
						<MiningField name="x570"/>
						<MiningField name="x575"/>
						<MiningField name="x577"/>
						<MiningField name="x578"/>
						<MiningField name="x579"/>
						<MiningField name="x603"/>
						<MiningField name="x604"/>
						<MiningField name="x608"/>
						<MiningField name="x609"/>
						<MiningField name="x610"/>
						<MiningField name="x631"/>
						<MiningField name="x633"/>
						<MiningField name="x638"/>
						<MiningField name="x641"/>
						<MiningField name="x642"/>
						<MiningField name="x643"/>
						<MiningField name="x666"/>
						<MiningField name="x667"/>
						<MiningField name="x670"/>
						<MiningField name="x671"/>
						<MiningField name="x673"/>
						<MiningField name="x692"/>
						<MiningField name="x694"/>
						<MiningField name="x696"/>
						<MiningField name="x698"/>
						<MiningField name="x700"/>
						<MiningField name="x705"/>
						<MiningField name="x706"/>
						<MiningField name="x729"/>
						<MiningField name="x731"/>
						<MiningField name="x734"/>
						<MiningField name="x735"/>
						<MiningField name="x736"/>
						<MiningField name="x757"/>
						<MiningField name="x759"/>
						<MiningField name="x763"/>
						<MiningField name="x764"/>
						<MiningField name="x765"/>
						<MiningField name="x766"/>
						<MiningField name="x767"/>
						<MiningField name="x768"/>
						<MiningField name="x791"/>
						<MiningField name="x792"/>
						<MiningField name="x793"/>
						<MiningField name="x794"/>
						<MiningField name="x797"/>
						<MiningField name="x798"/>
						<MiningField name="x799"/>
						<MiningField name="x822"/>
						<MiningField name="x825"/>
						<MiningField name="x827"/>
						<MiningField name="x830"/>
						<MiningField name="x831"/>
						<MiningField name="x832"/>
						<MiningField name="x855"/>
						<MiningField name="x856"/>
						<MiningField name="x861"/>
						<MiningField name="x862"/>
						<MiningField name="x883"/>
						<MiningField name="x885"/>
						<MiningField name="x887"/>
						<MiningField name="x888"/>
						<MiningField name="x889"/>
						<MiningField name="x890"/>
						<MiningField name="x892"/>
						<MiningField name="x893"/>
						<MiningField name="x894"/>
						<MiningField name="x896"/>
						<MiningField name="x918"/>
						<MiningField name="x923"/>
						<MiningField name="x924"/>
						<MiningField name="x925"/>
						<MiningField name="x946"/>
						<MiningField name="x948"/>
						<MiningField name="x952"/>
						<MiningField name="x953"/>
						<MiningField name="x957"/>
						<MiningField name="x958"/>
						<MiningField name="x980"/>
						<MiningField name="x981"/>
						<MiningField name="x982"/>
						<MiningField name="x983"/>
						<MiningField name="x984"/>
						<MiningField name="x985"/>
						<MiningField name="x986"/>
						<MiningField name="x987"/>
						<MiningField name="x988"/>
						<MiningField name="x1007"/>
						<MiningField name="x1009"/>
						<MiningField name="x1011"/>
						<MiningField name="x1015"/>
						<MiningField name="x1016"/>
						<MiningField name="x1018"/>
						<MiningField name="x1020"/>
						<MiningField name="x1021"/>
						<MiningField name="x1022"/>
						<MiningField name="x1043"/>
						<MiningField name="x1044"/>
						<MiningField name="x1045"/>
						<MiningField name="x1047"/>
						<MiningField name="x1049"/>
						<MiningField name="x1050"/>
						<MiningField name="x1051"/>
						<MiningField name="x1072"/>
						<MiningField name="x1074"/>
						<MiningField name="x1077"/>
						<MiningField name="x1078"/>
						<MiningField name="x1079"/>
						<MiningField name="x1083"/>
						<MiningField name="x1084"/>
						<MiningField name="x1107"/>
						<MiningField name="x1108"/>
						<MiningField name="x1112"/>
						<MiningField name="x1113"/>
						<MiningField name="x1114"/>
						<MiningField name="x1135"/>
						<MiningField name="x1137"/>
						<MiningField name="x1140"/>
						<MiningField name="x1141"/>
						<MiningField name="x1142"/>
						<MiningField name="x1145"/>
						<MiningField name="x1146"/>
						<MiningField name="x1147"/>
						<MiningField name="x1170"/>
						<MiningField name="x1171"/>
						<MiningField name="x1175"/>
						<MiningField name="x1176"/>
						<MiningField name="x1177"/>
						<MiningField name="x1198"/>
						<MiningField name="x1200"/>
						<MiningField name="x1204"/>
						<MiningField name="x1205"/>
						<MiningField name="x1208"/>
						<MiningField name="x1209"/>
						<MiningField name="x1210"/>
						<MiningField name="x1219"/>
						<MiningField name="x1233"/>
						<MiningField name="x1234"/>
						<MiningField name="x1238"/>
						<MiningField name="x1239"/>
						<MiningField name="x1240"/>
					</MiningSchema>
					<Output>
						<OutputField name="lgbmValue" optype="continuous" dataType="double" isFinalResult="false"/>
					</Output>
					<Segmentation multipleModelMethod="sum">
						<Segment id="1">
							<True/>
							<TreeModel functionName="regression" noTrueChildStrategy="returnLastPrediction">
								<MiningSchema>
									<MiningField name="x42"/>
									<MiningField name="x162"/>
									<MiningField name="x381"/>
									<MiningField name="x386"/>
									<MiningField name="x419"/>
									<MiningField name="x421"/>
									<MiningField name="x442"/>
									<MiningField name="x449"/>
									<MiningField name="x483"/>
									<MiningField name="x667"/>
									<MiningField name="x890"/>
									<MiningField name="x918"/>
									<MiningField name="x1107"/>
									<MiningField name="x1114"/>
									<MiningField name="x1137"/>
									<MiningField name="x1176"/>
									<MiningField name="x1177"/>
									<MiningField name="x1200"/>
									<MiningField name="x1209"/>
									<MiningField name="x1210"/>
									<MiningField name="x1238"/>
									<MiningField name="x1239"/>
									<MiningField name="x1240"/>
								</MiningSchema>
								<Node score="-0.11757690807746238">
									<True/>
									<Node score="-0.1145863693020579">
										<SimplePredicate field="x1137" operator="greaterThan" value="-8.499999999999998"/>
										<Node score="-0.14697145531495456">
											<SimplePredicate field="x1210" operator="greaterThan" value="399.00000000000006"/>
											<Node score="-0.1384142298372568">
												<SimplePredicate field="x162" operator="greaterThan" value="25.500000000000004"/>
											</Node>
											<Node score="-0.14568121057832287">
												<SimplePredicate field="x667" operator="greaterThan" value="716.5000000000001"/>
											</Node>
											<Node score="-0.1506265388742004">
												<SimplePredicate field="x1114" operator="greaterThan" value="181.50000000000003"/>
											</Node>
											<Node score="-0.13180866849969972">
												<SimplePredicate field="x442" operator="greaterThan" value="240.50000000000003"/>
											</Node>
										</Node>
										<Node score="-0.1312571538237927">
											<SimplePredicate field="x419" operator="greaterThan" value="-4.499999999999999"/>
											<Node score="-0.14634745840395896">
												<SimplePredicate field="x890" operator="greaterThan" value="543.0000000000001"/>
												<Node score="-0.13444810132692453">
													<SimplePredicate field="x1240" operator="greaterThan" value="367.50000000000006"/>
												</Node>
											</Node>
											<Node score="-0.14421647880344166">
												<SimplePredicate field="x386" operator="greaterThan" value="555.0000000000001"/>
											</Node>
											<Node score="-0.13913753082051838">
												<SimplePredicate field="x918" operator="greaterThan" value="3.5000000000000004"/>
												<Node score="-0.12032713570127185">
													<SimplePredicate field="x381" operator="greaterThan" value="183.50000000000003"/>
												</Node>
											</Node>
										</Node>
									</Node>
									<Node score="-0.11707572818313297">
										<SimplePredicate field="x1239" operator="greaterThan" value="54.50000000000001"/>
										<Node score="-0.11618991991645372">
											<SimplePredicate field="x1240" operator="greaterThan" value="289.50000000000006"/>
											<Node score="-0.12167790426579277">
												<SimplePredicate field="x1107" operator="greaterThan" value="42.50000000000001"/>
												<Node score="-0.14558650785781316">
													<SimplePredicate field="x381" operator="greaterThan" value="-40.49999999999999"/>
												</Node>
											</Node>
											<Node score="-0.12488179334031761">
												<SimplePredicate field="x419" operator="greaterThan" value="46.50000000000001"/>
											</Node>
										</Node>
										<Node score="-0.12916242101593106">
											<SimplePredicate field="x1200" operator="greaterThan" value="-142.49999999999997"/>
											<Node score="-0.14173864281185355">
												<SimplePredicate field="x890" operator="greaterThan" value="555.0000000000001"/>
											</Node>
										</Node>
									</Node>
									<Node score="-0.11567984861619389">
										<SimplePredicate field="x1200" operator="greaterThan" value="-160.49999999999997"/>
										<Node score="-0.1191978046063445">
											<SimplePredicate field="x1238" operator="greaterThan" value="1.0000000180025095E-35"/>
											<Node score="-0.1327429259865097">
												<SimplePredicate field="x1177" operator="greaterThan" value="384.50000000000006"/>
												<Node score="-0.11783367150767386">
													<SimplePredicate field="x1176" operator="greaterThan" value="28.500000000000004"/>
												</Node>
											</Node>
											<Node score="-0.11945732261048185">
												<SimplePredicate field="x483" operator="greaterThan" value="105.50000000000001"/>
											</Node>
											<Node score="-0.12508936237334703">
												<SimplePredicate field="x1209" operator="greaterThan" value="41.50000000000001"/>
												<Node score="-0.1371469457417732">
													<SimplePredicate field="x1200" operator="greaterThan" value="-79.49999999999999"/>
													<Node score="-0.14261566124621997">
														<SimplePredicate field="x449" operator="greaterThan" value="539.5000000000001"/>
													</Node>
												</Node>
												<Node score="-0.13608225537340876">
													<SimplePredicate field="x1209" operator="greaterThan" value="175.50000000000003"/>
													<Node score="-0.11847527557249315">
														<SimplePredicate field="x42" operator="greaterThan" value="75.50000000000001"/>
													</Node>
												</Node>
												<Node score="-0.14903096769734153">
													<SimplePredicate field="x421" operator="greaterThan" value="382.50000000000006"/>
												</Node>
											</Node>
										</Node>
									</Node>
								</Node>
							</TreeModel>
						</Segment>
						<Segment id="2">
							<True/>
							<TreeModel functionName="regression" noTrueChildStrategy="returnLastPrediction">
								<MiningSchema>
									<MiningField name="x42"/>
									<MiningField name="x138"/>
									<MiningField name="x162"/>
									<MiningField name="x167"/>
									<MiningField name="x225"/>
									<MiningField name="x381"/>
									<MiningField name="x386"/>
									<MiningField name="x449"/>
									<MiningField name="x570"/>
									<MiningField name="x643"/>
									<MiningField name="x667"/>
									<MiningField name="x705"/>
									<MiningField name="x734"/>
									<MiningField name="x735"/>
									<MiningField name="x890"/>
									<MiningField name="x918"/>
									<MiningField name="x923"/>
									<MiningField name="x948"/>
									<MiningField name="x1044"/>
									<MiningField name="x1107"/>
									<MiningField name="x1137"/>
									<MiningField name="x1177"/>
									<MiningField name="x1200"/>
									<MiningField name="x1209"/>
									<MiningField name="x1210"/>
									<MiningField name="x1239"/>
									<MiningField name="x1240"/>
								</MiningSchema>
								<Node score="0.017408720643301213">
									<True/>
									<Node score="0.021287717950777562">
										<SimplePredicate field="x1137" operator="greaterThan" value="-8.499999999999998"/>
										<Node score="-0.012725839240867636">
											<SimplePredicate field="x1210" operator="greaterThan" value="399.00000000000006"/>
											<Node score="-0.0023472184781008192">
												<SimplePredicate field="x162" operator="greaterThan" value="25.500000000000004"/>
											</Node>
											<Node score="-0.009547646357613633">
												<SimplePredicate field="x667" operator="greaterThan" value="716.5000000000001"/>
											</Node>
										</Node>
										<Node score="0.004128456846991048">
											<SimplePredicate field="x923" operator="greaterThan" value="1.0000000180025095E-35"/>
											<Node score="-0.010167233246766817">
												<SimplePredicate field="x890" operator="greaterThan" value="543.0000000000001"/>
												<Node score="0.0015771538590283554">
													<SimplePredicate field="x1240" operator="greaterThan" value="367.50000000000006"/>
												</Node>
											</Node>
											<Node score="-0.008040719326889363">
												<SimplePredicate field="x386" operator="greaterThan" value="555.0000000000001"/>
											</Node>
											<Node score="-0.0030104580513844593">
												<SimplePredicate field="x918" operator="greaterThan" value="3.5000000000000004"/>
												<Node score="0.015565836268759618">
													<SimplePredicate field="x570" operator="greaterThan" value="183.50000000000003"/>
												</Node>
											</Node>
										</Node>
									</Node>
									<Node score="0.018755668624745578">
										<SimplePredicate field="x1239" operator="greaterThan" value="54.50000000000001"/>
										<Node score="0.019158632950144694">
											<SimplePredicate field="x1240" operator="greaterThan" value="289.50000000000006"/>
											<Node score="0.014208918938825886">
												<SimplePredicate field="x1107" operator="greaterThan" value="42.50000000000001"/>
												<Node score="-0.009453761052339462">
													<SimplePredicate field="x381" operator="greaterThan" value="-40.49999999999999"/>
												</Node>
											</Node>
										</Node>
										<Node score="0.006809337110225609">
											<SimplePredicate field="x1200" operator="greaterThan" value="-142.49999999999997"/>
											<Node score="-0.0056402422552624485">
												<SimplePredicate field="x890" operator="greaterThan" value="555.0000000000001"/>
											</Node>
										</Node>
									</Node>
									<Node score="0.016659439976640378">
										<SimplePredicate field="x1200" operator="greaterThan" value="-150.49999999999997"/>
										<Node score="6.601531802197841E-4">
											<SimplePredicate field="x1177" operator="greaterThan" value="384.50000000000006"/>
											<Node score="0.017790418115607578">
												<SimplePredicate field="x735" operator="greaterThan" value="12.500000000000002"/>
												<Node score="0.0015431882449484604">
													<SimplePredicate field="x1044" operator="greaterThan" value="39.50000000000001"/>
												</Node>
											</Node>
										</Node>
										<Node score="0.018549932074433534">
											<SimplePredicate field="x42" operator="greaterThan" value="89.50000000000001"/>
											<Node score="-0.004762814355590022">
												<SimplePredicate field="x167" operator="greaterThan" value="44.50000000000001"/>
											</Node>
										</Node>
										<Node score="0.021341657226534028">
											<SimplePredicate field="x1209" operator="greaterThan" value="41.50000000000001"/>
											<Node score="0.014258440602933051">
												<SimplePredicate field="x734" operator="greaterThan" value="1.0000000180025095E-35"/>
												<Node score="0.006275269676750783">
													<SimplePredicate field="x948" operator="greaterThan" value="-79.49999999999999"/>
													<Node score="-0.006581700845650451">
														<SimplePredicate field="x449" operator="greaterThan" value="539.5000000000001"/>
													</Node>
													<Node score="-0.003388556788654743">
														<SimplePredicate field="x225" operator="greaterThan" value="42.50000000000001"/>
													</Node>
													<Node score="-7.535132284354252E-4">
														<SimplePredicate field="x138" operator="greaterThan" value="70.50000000000001"/>
													</Node>
												</Node>
												<Node score="-1.0557515276971693E-4">
													<SimplePredicate field="x705" operator="greaterThan" value="175.50000000000003"/>
												</Node>
												<Node score="6.970687681567917E-4">
													<SimplePredicate field="x643" operator="greaterThan" value="263.50000000000006"/>
												</Node>
											</Node>
										</Node>
									</Node>
								</Node>
							</TreeModel>
						</Segment>
						<Segment id="3">
							<True/>
							<TreeModel functionName="regression" noTrueChildStrategy="returnLastPrediction">
								<MiningSchema>
									<MiningField name="x42"/>
									<MiningField name="x162"/>
									<MiningField name="x201"/>
									<MiningField name="x381"/>
									<MiningField name="x386"/>
									<MiningField name="x419"/>
									<MiningField name="x421"/>
									<MiningField name="x449"/>
									<MiningField name="x483"/>
									<MiningField name="x570"/>
									<MiningField name="x667"/>
									<MiningField name="x673"/>
									<MiningField name="x861"/>
									<MiningField name="x890"/>
									<MiningField name="x918"/>
									<MiningField name="x1107"/>
									<MiningField name="x1137"/>
									<MiningField name="x1176"/>
									<MiningField name="x1177"/>
									<MiningField name="x1200"/>
									<MiningField name="x1209"/>
									<MiningField name="x1210"/>
									<MiningField name="x1238"/>
									<MiningField name="x1239"/>
									<MiningField name="x1240"/>
								</MiningSchema>
								<Node score="0.01806935104900159">
									<True/>
									<Node score="0.02106733819745445">
										<SimplePredicate field="x1137" operator="greaterThan" value="-8.499999999999998"/>
										<Node score="-0.012611069104681913">
											<SimplePredicate field="x1210" operator="greaterThan" value="399.00000000000006"/>
											<Node score="-0.0023241285533413996">
												<SimplePredicate field="x162" operator="greaterThan" value="25.500000000000004"/>
											</Node>
											<Node score="-0.009458981780474692">
												<SimplePredicate field="x667" operator="greaterThan" value="716.5000000000001"/>
											</Node>
										</Node>
										<Node score="0.0046830505846882425">
											<SimplePredicate field="x419" operator="greaterThan" value="-4.499999999999999"/>
											<Node score="-0.010114313669774293">
												<SimplePredicate field="x890" operator="greaterThan" value="543.0000000000001"/>
												<Node score="0.0015612352296380826">
													<SimplePredicate field="x1240" operator="greaterThan" value="367.50000000000006"/>
												</Node>
											</Node>
											<Node score="-0.00802009829071195">
												<SimplePredicate field="x386" operator="greaterThan" value="555.0000000000001"/>
											</Node>
											<Node score="-0.003034475869685393">
												<SimplePredicate field="x918" operator="greaterThan" value="3.5000000000000004"/>
												<Node score="0.015396387958938607">
													<SimplePredicate field="x570" operator="greaterThan" value="183.50000000000003"/>
												</Node>
											</Node>
										</Node>
									</Node>
									<Node score="0.01854928813981835">
										<SimplePredicate field="x1239" operator="greaterThan" value="54.50000000000001"/>
										<Node score="0.018947519145952278">
											<SimplePredicate field="x1240" operator="greaterThan" value="289.50000000000006"/>
											<Node score="0.01405533778650928">
												<SimplePredicate field="x1107" operator="greaterThan" value="42.50000000000001"/>
												<Node score="-0.00936589663589583">
													<SimplePredicate field="x381" operator="greaterThan" value="-40.49999999999999"/>
												</Node>
											</Node>
										</Node>
										<Node score="0.005024549093590126">
											<SimplePredicate field="x1200" operator="greaterThan" value="-142.49999999999997"/>
											<Node score="0.015589515852391229">
												<SimplePredicate field="x861" operator="greaterThan" value="108.50000000000001"/>
											</Node>
											<Node score="-0.007392399434928352">
												<SimplePredicate field="x890" operator="greaterThan" value="555.0000000000001"/>
											</Node>
										</Node>
									</Node>
									<Node score="0.019942504850796804">
										<SimplePredicate field="x1200" operator="greaterThan" value="-160.49999999999997"/>
										<Node score="0.016477558671801652">
											<SimplePredicate field="x1238" operator="greaterThan" value="1.0000000180025095E-35"/>
											<Node score="0.0032236314621310242">
												<SimplePredicate field="x1177" operator="greaterThan" value="384.50000000000006"/>
												<Node score="0.017823556652733687">
													<SimplePredicate field="x1176" operator="greaterThan" value="28.500000000000004"/>
												</Node>
											</Node>
											<Node score="0.01624124687321585">
												<SimplePredicate field="x483" operator="greaterThan" value="105.50000000000001"/>
											</Node>
											<Node score="0.010762391281715647">
												<SimplePredicate field="x1209" operator="greaterThan" value="41.50000000000001"/>
												<Node score="0.019091451105514183">
													<SimplePredicate field="x1200" operator="greaterThan" value="-79.49999999999999"/>
													<Node score="-0.0023844456824141354">
														<SimplePredicate field="x201" operator="greaterThan" value="102.50000000000001"/>
														<Node score="-0.009357554270665812">
															<SimplePredicate field="x449" operator="greaterThan" value="539.5000000000001"/>
														</Node>
													</Node>
													<Node score="-1.7625743687897256E-4">
														<SimplePredicate field="x673" operator="greaterThan" value="292.50000000000006"/>
													</Node>
												</Node>
												<Node score="-5.003331718048654E-5">
													<SimplePredicate field="x1209" operator="greaterThan" value="175.50000000000003"/>
													<Node score="0.017276545077514496">
														<SimplePredicate field="x42" operator="greaterThan" value="75.50000000000001"/>
													</Node>
												</Node>
												<Node score="-0.012880373400026082">
													<SimplePredicate field="x421" operator="greaterThan" value="382.50000000000006"/>
												</Node>
											</Node>
										</Node>
									</Node>
								</Node>
							</TreeModel>
						</Segment>
						<Segment id="4">
							<True/>
							<TreeModel functionName="regression" noTrueChildStrategy="returnLastPrediction">
								<MiningSchema>
									<MiningField name="x42"/>
									<MiningField name="x138"/>
									<MiningField name="x162"/>
									<MiningField name="x167"/>
									<MiningField name="x225"/>
									<MiningField name="x381"/>
									<MiningField name="x386"/>
									<MiningField name="x449"/>
									<MiningField name="x609"/>
									<MiningField name="x643"/>
									<MiningField name="x667"/>
									<MiningField name="x705"/>
									<MiningField name="x734"/>
									<MiningField name="x735"/>
									<MiningField name="x890"/>
									<MiningField name="x918"/>
									<MiningField name="x923"/>
									<MiningField name="x948"/>
									<MiningField name="x1044"/>
									<MiningField name="x1107"/>
									<MiningField name="x1137"/>
									<MiningField name="x1177"/>
									<MiningField name="x1200"/>
									<MiningField name="x1209"/>
									<MiningField name="x1210"/>
									<MiningField name="x1239"/>
									<MiningField name="x1240"/>
								</MiningSchema>
								<Node score="0.017038112416403635">
									<True/>
									<Node score="0.020890159829476774">
										<SimplePredicate field="x1137" operator="greaterThan" value="-8.499999999999998"/>
										<Node score="-0.012498219539797122">
											<SimplePredicate field="x1210" operator="greaterThan" value="399.00000000000006"/>
											<Node score="-0.0023012675675963146">
												<SimplePredicate field="x162" operator="greaterThan" value="25.500000000000004"/>
											</Node>
											<Node score="-0.009371499703016995">
												<SimplePredicate field="x667" operator="greaterThan" value="716.5000000000001"/>
											</Node>
										</Node>
										<Node score="0.0040327742113504825">
											<SimplePredicate field="x923" operator="greaterThan" value="1.0000000180025095E-35"/>
											<Node score="-0.009980746908496376">
												<SimplePredicate field="x890" operator="greaterThan" value="543.0000000000001"/>
												<Node score="0.0015431823173846708">
													<SimplePredicate field="x1240" operator="greaterThan" value="367.50000000000006"/>
												</Node>
											</Node>
											<Node score="-0.0078903469602006">
												<SimplePredicate field="x386" operator="greaterThan" value="555.0000000000001"/>
											</Node>
											<Node score="-0.0029521804288400455">
												<SimplePredicate field="x918" operator="greaterThan" value="3.5000000000000004"/>
												<Node score="0.015251962411001158">
													<SimplePredicate field="x381" operator="greaterThan" value="183.50000000000003"/>
												</Node>
											</Node>
										</Node>
									</Node>
									<Node score="0.01834856901486331">
										<SimplePredicate field="x1239" operator="greaterThan" value="54.50000000000001"/>
										<Node score="0.018742334019354108">
											<SimplePredicate field="x1240" operator="greaterThan" value="289.50000000000006"/>
											<Node score="0.013904925150348808">
												<SimplePredicate field="x1107" operator="greaterThan" value="42.50000000000001"/>
												<Node score="-0.009279195950192578">
													<SimplePredicate field="x381" operator="greaterThan" value="-40.49999999999999"/>
												</Node>
											</Node>
										</Node>
										<Node score="0.001385270610070519">
											<SimplePredicate field="x1200" operator="greaterThan" value="-142.49999999999997"/>
											<Node score="0.010664562074523931">
												<SimplePredicate field="x609" operator="greaterThan" value="75.50000000000001"/>
											</Node>
										</Node>
									</Node>
									<Node score="0.01630005883139378">
										<SimplePredicate field="x1200" operator="greaterThan" value="-150.49999999999997"/>
										<Node score="6.196160181722735E-4">
											<SimplePredicate field="x1177" operator="greaterThan" value="384.50000000000006"/>
											<Node score="0.01743545993780721">
												<SimplePredicate field="x735" operator="greaterThan" value="12.500000000000002"/>
												<Node score="0.0014764300779089986">
													<SimplePredicate field="x1044" operator="greaterThan" value="39.50000000000001"/>
												</Node>
											</Node>
										</Node>
										<Node score="0.01817082981332812">
											<SimplePredicate field="x42" operator="greaterThan" value="89.50000000000001"/>
											<Node score="-0.0048094663908207136">
												<SimplePredicate field="x167" operator="greaterThan" value="44.50000000000001"/>
											</Node>
										</Node>
										<Node score="0.020982318086847515">
											<SimplePredicate field="x1209" operator="greaterThan" value="41.50000000000001"/>
											<Node score="0.014020923134720784">
												<SimplePredicate field="x734" operator="greaterThan" value="1.0000000180025095E-35"/>
												<Node score="0.006194945617482306">
													<SimplePredicate field="x948" operator="greaterThan" value="-79.49999999999999"/>
													<Node score="-0.006465232734875882">
														<SimplePredicate field="x449" operator="greaterThan" value="539.5000000000001"/>
													</Node>
													<Node score="-0.0033441128948880935">
														<SimplePredicate field="x225" operator="greaterThan" value="42.50000000000001"/>
													</Node>
													<Node score="-7.322009016069651E-4">
														<SimplePredicate field="x138" operator="greaterThan" value="70.50000000000001"/>
													</Node>
												</Node>
												<Node score="-1.0700922491364545E-4">
													<SimplePredicate field="x705" operator="greaterThan" value="175.50000000000003"/>
												</Node>
												<Node score="6.44037900355799E-4">
													<SimplePredicate field="x643" operator="greaterThan" value="263.50000000000006"/>
												</Node>
											</Node>
										</Node>
									</Node>
								</Node>
							</TreeModel>
						</Segment>
						<Segment id="5">
							<True/>
							<TreeModel functionName="regression" noTrueChildStrategy="returnLastPrediction">
								<MiningSchema>
									<MiningField name="x37"/>
									<MiningField name="x42"/>
									<MiningField name="x64"/>
									<MiningField name="x132"/>
									<MiningField name="x162"/>
									<MiningField name="x381"/>
									<MiningField name="x386"/>
									<MiningField name="x442"/>
									<MiningField name="x603"/>
									<MiningField name="x666"/>
									<MiningField name="x673"/>
									<MiningField name="x694"/>
									<MiningField name="x696"/>
									<MiningField name="x734"/>
									<MiningField name="x735"/>
									<MiningField name="x890"/>
									<MiningField name="x924"/>
									<MiningField name="x948"/>
									<MiningField name="x988"/>
									<MiningField name="x1011"/>
									<MiningField name="x1043"/>
									<MiningField name="x1050"/>
									<MiningField name="x1112"/>
									<MiningField name="x1114"/>
									<MiningField name="x1137"/>
									<MiningField name="x1177"/>
									<MiningField name="x1209"/>
									<MiningField name="x1210"/>
									<MiningField name="x1239"/>
								</MiningSchema>
								<Node score="0.017458622102880135">
									<True/>
									<Node score="0.01859538741827284">
										<SimplePredicate field="x1011" operator="greaterThan" value="-23.499999999999996"/>
										<Node score="-0.010231349284462439">
											<SimplePredicate field="x1210" operator="greaterThan" value="396.50000000000006"/>
											<Node score="-0.0023382878855746194">
												<SimplePredicate field="x162" operator="greaterThan" value="25.500000000000004"/>
											</Node>
											<Node score="-0.009345685514401559">
												<SimplePredicate field="x37" operator="greaterThan" value="716.5000000000001"/>
											</Node>
											<Node score="-0.01458504828712192">
												<SimplePredicate field="x1114" operator="greaterThan" value="181.50000000000003"/>
											</Node>
											<Node score="0.0071385726232117905">
												<SimplePredicate field="x64" operator="greaterThan" value="270.50000000000006"/>
											</Node>
										</Node>
										<Node score="-0.0015272842832057402">
											<SimplePredicate field="x1112" operator="greaterThan" value="1.0000000180025095E-35"/>
											<Node score="-1.557993898106145E-4">
												<SimplePredicate field="x988" operator="greaterThan" value="345.50000000000006"/>
												<Node score="0.01309952752095469">
													<SimplePredicate field="x1239" operator="greaterThan" value="53.50000000000001"/>
												</Node>
												<Node score="-0.003996177014071593">
													<SimplePredicate field="x666" operator="greaterThan" value="38.50000000000001"/>
												</Node>
												<Node score="0.007540367878645871">
													<SimplePredicate field="x442" operator="greaterThan" value="309.50000000000006"/>
												</Node>
											</Node>
											<Node score="-0.0101822562223629">
												<SimplePredicate field="x386" operator="greaterThan" value="543.0000000000001"/>
											</Node>
											<Node score="-0.008742742074723503">
												<SimplePredicate field="x890" operator="greaterThan" value="543.0000000000001"/>
											</Node>
											<Node score="0.01646312360793969">
												<SimplePredicate field="x735" operator="greaterThan" value="89.50000000000001"/>
												<Node score="-0.0047097920191842505">
													<SimplePredicate field="x696" operator="greaterThan" value="35.50000000000001"/>
												</Node>
											</Node>
											<Node score="0.020843338330353442">
												<SimplePredicate field="x381" operator="greaterThan" value="186.50000000000003"/>
											</Node>
											<Node score="-0.008974970744174344">
												<SimplePredicate field="x694" operator="greaterThan" value="147.50000000000003"/>
												<Node score="-0.0027087495004953464">
													<SimplePredicate field="x132" operator="greaterThan" value="20.500000000000004"/>
												</Node>
											</Node>
										</Node>
									</Node>
									<Node score="0.012357963587213402">
										<SimplePredicate field="x924" operator="greaterThan" value="52.50000000000001"/>
										<Node score="0.01886405792020025">
											<SimplePredicate field="x1177" operator="greaterThan" value="289.50000000000006"/>
											<Node score="0.0066994863741635545">
												<SimplePredicate field="x603" operator="greaterThan" value="42.50000000000001"/>
											</Node>
										</Node>
										<Node score="0.007405814829267093">
											<SimplePredicate field="x1137" operator="greaterThan" value="-65.49999999999999"/>
											<Node score="-0.007934147900451964">
												<SimplePredicate field="x1043" operator="greaterThan" value="1.0000000180025095E-35"/>
											</Node>
										</Node>
									</Node>
									<Node score="0.012671129175789093">
										<SimplePredicate field="x1137" operator="greaterThan" value="-158.49999999999997"/>
										<Node score="0.005064160202425157">
											<SimplePredicate field="x673" operator="greaterThan" value="384.50000000000006"/>
											<Node score="0.01758019172307153">
												<SimplePredicate field="x1050" operator="greaterThan" value="23.500000000000004"/>
											</Node>
										</Node>
										<Node score="0.0151666321202037">
											<SimplePredicate field="x42" operator="greaterThan" value="89.50000000000001"/>
										</Node>
										<Node score="0.020737802508000537">
											<SimplePredicate field="x1209" operator="greaterThan" value="72.50000000000001"/>
											<Node score="0.0018818405067979958">
												<SimplePredicate field="x734" operator="greaterThan" value="1.0000000180025095E-35"/>
												<Node score="-0.0021779797766099886">
													<SimplePredicate field="x948" operator="greaterThan" value="-79.49999999999999"/>
												</Node>
											</Node>
										</Node>
									</Node>
								</Node>
							</TreeModel>
						</Segment>
						<Segment id="6">
							<True/>
							<TreeModel functionName="regression" noTrueChildStrategy="returnLastPrediction">
								<MiningSchema>
									<MiningField name="x42"/>
									<MiningField name="x162"/>
									<MiningField name="x201"/>
									<MiningField name="x381"/>
									<MiningField name="x386"/>
									<MiningField name="x419"/>
									<MiningField name="x420"/>
									<MiningField name="x421"/>
									<MiningField name="x449"/>
									<MiningField name="x483"/>
									<MiningField name="x667"/>
									<MiningField name="x673"/>
									<MiningField name="x885"/>
									<MiningField name="x890"/>
									<MiningField name="x918"/>
									<MiningField name="x1107"/>
									<MiningField name="x1137"/>
									<MiningField name="x1176"/>
									<MiningField name="x1177"/>
									<MiningField name="x1200"/>
									<MiningField name="x1209"/>
									<MiningField name="x1210"/>
									<MiningField name="x1238"/>
									<MiningField name="x1239"/>
									<MiningField name="x1240"/>
								</MiningSchema>
								<Node score="0.01750982250031395">
									<True/>
									<Node score="0.020533289328278994">
										<SimplePredicate field="x1137" operator="greaterThan" value="-8.499999999999998"/>
										<Node score="-0.012280962356225493">
											<SimplePredicate field="x1210" operator="greaterThan" value="399.00000000000006"/>
											<Node score="-0.0022556388812230454">
												<SimplePredicate field="x162" operator="greaterThan" value="25.500000000000004"/>
											</Node>
											<Node score="-0.00919798376622256">
												<SimplePredicate field="x667" operator="greaterThan" value="716.5000000000001"/>
											</Node>
										</Node>
										<Node score="0.004585370474947369">
											<SimplePredicate field="x419" operator="greaterThan" value="-4.499999999999999"/>
											<Node score="-0.009856295763980012">
												<SimplePredicate field="x890" operator="greaterThan" value="543.0000000000001"/>
												<Node score="0.0015372205396918077">
													<SimplePredicate field="x1240" operator="greaterThan" value="367.50000000000006"/>
												</Node>
											</Node>
											<Node score="-0.007793695145499945">
												<SimplePredicate field="x386" operator="greaterThan" value="555.0000000000001"/>
											</Node>
											<Node score="-0.002971390443368072">
												<SimplePredicate field="x918" operator="greaterThan" value="3.5000000000000004"/>
												<Node score="0.013570202839609493">
													<SimplePredicate field="x885" operator="greaterThan" value="183.50000000000003"/>
												</Node>
											</Node>
										</Node>
									</Node>
									<Node score="0.018020540910958182">
										<SimplePredicate field="x1239" operator="greaterThan" value="54.50000000000001"/>
										<Node score="0.018825827776087063">
											<SimplePredicate field="x1240" operator="greaterThan" value="289.50000000000006"/>
											<Node score="0.013642842245247297">
												<SimplePredicate field="x1107" operator="greaterThan" value="42.50000000000001"/>
												<Node score="-0.009258002399556575">
													<SimplePredicate field="x381" operator="greaterThan" value="-40.49999999999999"/>
												</Node>
											</Node>
											<Node score="0.010298048739808493">
												<SimplePredicate field="x419" operator="greaterThan" value="46.50000000000001"/>
											</Node>
										</Node>
										<Node score="0.0029230772196783663">
											<SimplePredicate field="x1200" operator="greaterThan" value="-142.49999999999997"/>
											<Node score="0.015892968728403248">
												<SimplePredicate field="x420" operator="greaterThan" value="107.50000000000001"/>
											</Node>
										</Node>
									</Node>
									<Node score="0.01938104537930452">
										<SimplePredicate field="x1200" operator="greaterThan" value="-160.49999999999997"/>
										<Node score="0.01606549268027763">
											<SimplePredicate field="x1238" operator="greaterThan" value="1.0000000180025095E-35"/>
											<Node score="0.003113695032332896">
												<SimplePredicate field="x1177" operator="greaterThan" value="384.50000000000006"/>
												<Node score="0.017293824098183412">
													<SimplePredicate field="x1176" operator="greaterThan" value="28.500000000000004"/>
												</Node>
											</Node>
											<Node score="0.015753937775603476">
												<SimplePredicate field="x483" operator="greaterThan" value="105.50000000000001"/>
											</Node>
											<Node score="0.010554722278825233">
												<SimplePredicate field="x1209" operator="greaterThan" value="41.50000000000001"/>
												<Node score="0.018822109041320544">
													<SimplePredicate field="x1200" operator="greaterThan" value="-79.49999999999999"/>
													<Node score="-0.0023256316867293564">
														<SimplePredicate field="x201" operator="greaterThan" value="102.50000000000001"/>
														<Node score="-0.009179572479480896">
															<SimplePredicate field="x449" operator="greaterThan" value="539.5000000000001"/>
														</Node>
													</Node>
													<Node score="-1.6746470650451844E-4">
														<SimplePredicate field="x673" operator="greaterThan" value="292.50000000000006"/>
													</Node>
												</Node>
												<Node score="-8.722184056185406E-5">
